{"learner":{"attributes":{"scikit_learn":"{\"_estimator_type\": \"classifier\"}"},"feature_names":[],"feature_types":[],"gradient_booster":{"model":{"gbtree_model_param":{"num_parallel_tree":"1","num_trees":"100"},"iteration_indptr":[0,1,2,3,4,5,6,7,8,9,10,11,12,13,14,15,16,17,18,19,20,21,22,23,24,25,26,27,28,29,30,31,32,33,34,35,36,37,38,39,40,41,42,43,44,45,46,47,48,49,50,51,52,53,54,55,56,57,58,59,60,61,62,63,64,65,66,67,68,69,70,71,72,73,74,75,76,77,78,79,80,81,82,83,84,85,86,87,88,89,90,91,92,93,94,95,96,97,98,99,100],"tree_info":[0,0,0,0,0,0,0,0,0,0,0,0,0,0,0,0,0,0,0,0,0,0,0,0,0,0,0,0,0,0,0,0,0,0,0,0,0,0,0,0,0,0,0,0,0,0,0,0,0,0,0,0,0,0,0,0,0,0,0,0,0,0,0,0,0,0,0,0,0,0,0,0,0,0,0,0,0,0,0,0,0,0,0,0,0,0,0,0,0,0,0,0,0,0,0,0,0,0,0,0],"trees":[{"base_weights":[2.231983E-2,-2.7300332E0,1.0668066E0,-2.8278086E0,-7.316522E-1,1.1561987E0,-8.6441326E-1,-2.850153E0,-1.5306938E0,-1.5684745E-1,-2.8630526E0,-4.7271334E-2,1.3047858E0,-2.8637674E0,-2.0830467E0,-2.4298236E0,-2.4297671E-1,2.716867E-1,-2.618385E0,-8.643281E-1,-2.0768686E-1,-6.759178E-1,1.4689633E0,1.3584831E0,-6.193595E-1,-2.3354845E0,-2.8802302E0,1.5007478E0,-8.6435515E-1,-2.6924174E0,-1.3607429E-1,3.203513E-1,-2.366025E0,5.536095E-1,-8.64038E-1,-8.642127E-1,-1.1354184E0,4.3456373E-1,-8.2790965E-1,2.5774905E-1,-8.644136E-1,1.5303036E0,9.3015075E-2,1.2296568E0,1.5273297E0,-1.2122947E0,1.390596E0,-3.591209E-1,-8.425611E-1,-8.641292E-1,3.7625167E-1,4.5866427E-1,1.9746321E-1,-4.9060294E-1,-8.570263E-1,4.5779347E-1,-8.6170787E-1,1.6357325E-1,-7.2664607E-1,-5.3279955E-2,-8.1868154E-1,4.1843574E-3,4.438646E-1,-8.613337E-1,-0E0,9.186555E-2,-8.395365E-1,4.5932898E-1,-7.938234E-1,2.5504506E-1,-1.7522039E-1,3.9759573E-1,-8.6439556E-1,4.594461E-1,4.3712953E-1,-2.279072E-1,-8.6433226E-1,4.5259315E-1,-3.4859E-1],"categories":[],"categories_nodes":[],"categories_segments":[],"categories_sizes":[],"default_left":[0,0,1,0,1,0,0,1,1,1,1,1,0,0,0,1,0,1,1,0,0,1,0,1,1,0,1,0,0,0,0,0,0,1,0,0,0,0,0,1,0,0,1,1,0,1,0,0,0,0,0,0,0,0,0,0,0,0,0,0,0,0,0,0,0,0,0,0,0,0,0,0,0,0,0,0,0,0,0],"id":0,"left_children":[1,3,5,7,9,11,-1,13,15,17,19,21,23,25,27,29,31,33,35,-1,37,39,41,43,45,47,49,51,-1,53,55,57,59,61,-1,-1,63,-1,-1,65,-1,67,69,71,73,75,77,-1,-1,-1,-1,-1,-1,-1,-1,-1,-1,-1,-1,-1,-1,-1,-1,-1,-1,-1,-1,-1,-1,-1,-1,-1,-1,-1,-1,-1,-1,-1,-1],"loss_changes":[2.487831E6,4.651325E4,2.2140631E5,6.574375E3,1.3602644E4,1.09696625E5,0E0,2.32625E3,4.448575E3,9.228143E3,1.1050781E2,6.4257527E4,5.6416688E4,1.9025E3,1.1133104E4,1.3609043E3,1.8922925E3,6.6173516E3,5.0141504E2,0E0,6.958269E1,9.813469E4,1.6663281E3,1.15524375E4,1.766655E4,3.5654453E3,1.77125E2,1.504834E1,0E0,3.491172E2,1.0597799E3,7.6887634E2,2.6119275E2,3.415672E3,0E0,0E0,3.8690408E2,0E0,0E0,4.9577485E3,0E0,6.1746094E1,4.3278082E2,1.18494375E5,6.46875E1,8.643377E3,1.01771387E3,0E0,0E0,0E0,0E0,0E0,0E0,0E0,0E0,0E0,0E0,0E0,0E0,0E0,0E0,0E0,0E0,0E0,0E0,0E0,0E0,0E0,0E0,0E0,0E0,0E0,0E0,0E0,0E0,0E0,0E0,0E0,0E0],"parents":[2147483647,0,0,1,1,2,2,3,3,4,4,5,5,7,7,8,8,9,9,10,10,11,11,12,12,13,13,14,14,15,15,16,16,17,17,18,18,20,20,21,21,22,22,23,23,24,24,25,25,26,26,27,27,29,29,30,30,31,31,32,32,33,33,36,36,39,39,41,41,42,42,43,43,44,44,45,45,46,46],"right_children":[2,4,6,8,10,12,-1,14,16,18,20,22,24,26,28,30,32,34,36,-1,38,40,42,44,46,48,50,52,-1,54,56,58,60,62,-1,-1,64,-1,-1,66,-1,68,70,72,74,76,78,-1,-1,-1,-1,-1,-1,-1,-1,-1,-1,-1,-1,-1,-1,-1,-1,-1,-1,-1,-1,-1,-1,-1,-1,-1,-1,-1,-1,-1,-1,-1,-1],"split_conditions":[7.545126E-1,2.7212245E0,1.4720749E2,3.8989168E-1,7.7929254E0,1.5158845E1,-8.6441326E-1,1.4699583E2,9.569378E-2,0E0,3.6691203E0,1.4699583E2,3.6563263E1,-3.5E0,1.4720749E2,1.4699583E2,5.559193E-1,1.4720749E2,8.015268E-3,-8.643281E-1,-3.242194E-2,-5.8029044E-1,1.4707315E2,1.4699583E2,1.4699583E2,0E0,7.7195864E0,1.4707315E2,-8.6435515E-1,-3.5E0,1.4707315E2,8.995215E-1,-5.8029044E-1,1.4699583E2,-8.64038E-1,-8.642127E-1,4E-1,4.3456373E-1,-8.2790965E-1,6.7627687E0,-8.644136E-1,1.353061E2,1.0526316E-1,-5.802209E-1,1.4707315E2,-5.497481E-1,1.4707315E2,-3.591209E-1,-8.425611E-1,-8.641292E-1,3.7625167E-1,4.5866427E-1,1.9746321E-1,-4.9060294E-1,-8.570263E-1,4.5779347E-1,-8.6170787E-1,1.6357325E-1,-7.2664607E-1,-5.3279955E-2,-8.1868154E-1,4.1843574E-3,4.438646E-1,-8.613337E-1,-0E0,9.186555E-2,-8.395365E-1,4.5932898E-1,-7.938234E-1,2.5504506E-1,-1.7522039E-1,3.9759573E-1,-8.6439556E-1,4.594461E-1,4.3712953E-1,-2.279072E-1,-8.6433226E-1,4.5259315E-1,-3.4859E-1],"split_indices":[9,0,18,9,1,9,0,18,2,11,12,18,0,19,18,18,15,18,17,0,4,18,18,18,18,11,21,18,0,19,18,2,18,18,0,0,8,0,0,1,0,0,7,18,18,18,18,0,0,0,0,0,0,0,0,0,0,0,0,0,0,0,0,0,0,0,0,0,0,0,0,0,0,0,0,0,0,0,0],"split_type":[0,0,0,0,0,0,0,0,0,0,0,0,0,0,0,0,0,0,0,0,0,0,0,0,0,0,0,0,0,0,0,0,0,0,0,0,0,0,0,0,0,0,0,0,0,0,0,0,0,0,0,0,0,0,0,0,0,0,0,0,0,0,0,0,0,0,0,0,0,0,0,0,0,0,0,0,0,0,0],"sum_hessian":[8.653943E5,2.3806433E5,6.2733E5,2.269594E5,1.1104909E4,6.1344106E5,1.3888914E4,2.2311539E5,3.84403E3,8.746494E3,2.3584148E3,6.741482E4,5.4602625E5,2.1922356E5,3.8918198E3,2.2631777E3,1.5808523E3,7.449304E3,1.2971897E3,2.3422004E3,1.621439E1,4.765648E4,1.975834E4,5.312024E5,1.4823871E4,6.6266465E3,2.1259692E5,7.086841E2,3.1831357E3,2.0303857E3,2.3279196E2,1.2490529E3,3.3179953E2,6.837921E3,6.1138324E2,1.1017588E3,1.9543088E2,9.642813E0,6.5715766E0,3.3481816E4,1.4174664E4,1.8914541E4,8.4379913E2,3.0131234E5,2.2989006E5,1.144732E4,3.3765515E3,1.9457749E3,4.6808716E3,2.1258683E5,1.00960245E1,6.8486633E2,2.3817747E1,2.7383658E2,1.7565491E3,1.446422E2,8.8149765E1,1.1546593E3,9.4393486E1,4.7510136E1,2.842894E2,4.320616E3,2.5173044E3,7.749928E1,1.17931595E2,3.2959363E4,5.224524E2,1.8911143E4,3.3990912E0,3.989087E2,4.4489044E2,2.9446044E5,6.851888E3,2.1703169E5,1.2858363E4,9.005413E3,2.4419072E3,3.2275989E3,1.4895253E2],"tree_param":{"num_deleted":"0","num_feature":"25","num_nodes":"79","size_leaf_vector":"1"}},{"base_weights":[6.0466804E-2,-1.5396401E0,9.8741907E-1,-1.7335516E0,-4.055183E-1,1.0605872E0,-5.377754E-1,-1.7734462E0,-5.843713E-1,-1.3018616E0,1.4119975E-1,1.1216455E0,-3.7438947E-1,-1.441438E0,-1.7838199E0,-6.2241205E-3,-1.5537916E0,-1.5897622E0,3.7721267E-1,2.8150958E-1,-1.8338019E0,5.532008E-1,1.1789618E0,-7.669265E-1,1.2042367E0,-1.6397768E0,2.6950845E-1,-1.7917861E0,-1.3382634E0,-1.6213366E0,3.627041E-1,-7.1621007E-1,-1.8177047E0,-1.7444376E0,-3.565695E-2,5.2875817E-1,-5.3626513E-1,-1.2582171E-1,1.3012187E0,-2.0717132E0,-5.376349E-1,1.8404423E-1,1.2838917E0,1.2137628E0,6.726891E-1,-4.8894364E-1,-5.3773934E-1,1.3158256E0,-7.173542E-1,-5.3666425E-1,-3.2887545E-1,1.8340139E-1,-4.6417633E-1,-5.376104E-1,3.311864E-1,3.9078885E-1,-5.3774184E-1,-1.4978573E-1,-5.6735593E-1,1.6648266E-1,-5.374113E-1,9.708511E-3,-5.174787E-1,-1.2367802E-1,-5.550595E-1,-3.3348384E-1,-5.607337E-1,4.0040997E-1,-5.073579E-1,6.535514E-3,3.9538717E-1,1.0298875E-1,-5.5724335E-1,4.0292135E-1,1.3243993E-1,-7.312465E-1,-5.489527E-1,1.7765088E-1,-5.377463E-1,4.006398E-1,1.1227797E-1,3.3739862E-1,3.9960164E-1,2.4246566E-1,-8.599047E-1,-7.259673E-2,-6.249388E-1,3.9861748E-1,-1.0978001E0,-6.0078746E-1,3.2371965E-1],"categories":[],"categories_nodes":[],"categories_segments":[],"categories_sizes":[],"default_left":[0,0,1,0,0,0,0,0,0,1,1,0,1,0,1,0,0,1,1,1,0,1,1,1,0,1,1,1,0,0,1,1,0,0,0,1,0,1,0,0,0,1,0,1,0,0,0,0,1,0,0,0,0,0,0,0,0,0,0,0,0,0,0,0,0,0,0,0,0,0,0,0,0,0,0,0,0,0,0,0,0,0,0,0,0,0,0,0,0,0,0],"id":1,"left_children":[1,3,5,7,9,11,-1,13,15,17,19,21,23,25,27,29,31,33,35,37,39,41,43,45,47,49,51,53,55,57,59,61,63,65,67,69,-1,71,73,75,-1,77,79,81,83,85,-1,87,89,-1,-1,-1,-1,-1,-1,-1,-1,-1,-1,-1,-1,-1,-1,-1,-1,-1,-1,-1,-1,-1,-1,-1,-1,-1,-1,-1,-1,-1,-1,-1,-1,-1,-1,-1,-1,-1,-1,-1,-1,-1,-1],"loss_changes":[1.1908014E6,6.4763E4,1.0340269E5,1.15279375E4,2.1073291E4,4.3399E4,0E0,8.345625E2,4.728229E3,7.8765254E3,7.400119E3,1.5478125E4,1.2526324E4,2.5009219E3,8.340625E2,3.1510193E3,6.94709E2,3.3417148E3,7.811461E2,1.0359034E4,1.4475098E1,1.1737397E4,7.6025E3,4.6136143E3,8.636001E2,5.32709E2,4.7422824E2,1.671875E2,4.968356E3,2.9585083E2,1.7808945E3,5.7214844E2,1.0761182E2,9.9552344E2,2.857357E3,8.905714E2,0E0,1.44764375E4,2.5472363E2,1.9696045E1,0E0,2.3321834E4,6.8384375E2,4.2525E3,1.3313461E4,5.012944E3,0E0,2.4230566E2,5.099093E2,0E0,0E0,0E0,0E0,0E0,0E0,0E0,0E0,0E0,0E0,0E0,0E0,0E0,0E0,0E0,0E0,0E0,0E0,0E0,0E0,0E0,0E0,0E0,0E0,0E0,0E0,0E0,0E0,0E0,0E0,0E0,0E0,0E0,0E0,0E0,0E0,0E0,0E0,0E0,0E0,0E0,0E0],"parents":[2147483647,0,0,1,1,2,2,3,3,4,4,5,5,7,7,8,8,9,9,10,10,11,11,12,12,13,13,14,14,15,15,16,16,17,17,18,18,19,19,20,20,21,21,22,22,23,23,24,24,25,25,26,26,27,27,28,28,29,29,30,30,31,31,32,32,33,33,34,34,35,35,37,37,38,38,39,39,41,41,42,42,43,43,44,44,45,45,47,47,48,48],"right_children":[2,4,6,8,10,12,-1,14,16,18,20,22,24,26,28,30,32,34,36,38,40,42,44,46,48,50,52,54,56,58,60,62,64,66,68,70,-1,72,74,76,-1,78,80,82,84,86,-1,88,90,-1,-1,-1,-1,-1,-1,-1,-1,-1,-1,-1,-1,-1,-1,-1,-1,-1,-1,-1,-1,-1,-1,-1,-1,-1,-1,-1,-1,-1,-1,-1,-1,-1,-1,-1,-1,-1,-1,-1,-1,-1,-1],"split_conditions":[4.3898916E0,3.8989168E-1,1.4720749E2,2.9719543E0,9.569378E-2,3.370947E1,-5.377754E-1,-3.5E0,6.2720885E0,1E0,1.4720749E2,2.7252708E1,1.4699583E2,1E-2,1.4699583E2,3.6363637E-1,1.4151454E-1,1.4699583E2,1.4720749E2,1.4699583E2,7.545126E-1,1.4699583E2,2.0410013E0,-5.497481E-1,1.4707315E2,-9.1576084E-2,3.5432795E-1,5.720204E0,1.4720749E2,0E0,1.4720749E2,-5.0093927E-3,-3.4860545E-3,-3.5E0,1.4707315E2,1.4699583E2,-5.3626513E-1,-5.8029044E-1,1.4707315E2,2.7212245E0,-5.376349E-1,-5.8029044E-1,1.4707315E2,1.4699583E2,6.901E2,1.570101E2,-5.3773934E-1,2.3971066E2,3.2438903E0,-5.3666425E-1,-3.2887545E-1,1.8340139E-1,-4.6417633E-1,-5.376104E-1,3.311864E-1,3.9078885E-1,-5.3774184E-1,-1.4978573E-1,-5.6735593E-1,1.6648266E-1,-5.374113E-1,9.708511E-3,-5.174787E-1,-1.2367802E-1,-5.550595E-1,-3.3348384E-1,-5.607337E-1,4.0040997E-1,-5.073579E-1,6.535514E-3,3.9538717E-1,1.0298875E-1,-5.5724335E-1,4.0292135E-1,1.3243993E-1,-7.312465E-1,-5.489527E-1,1.7765088E-1,-5.377463E-1,4.006398E-1,1.1227797E-1,3.3739862E-1,3.9960164E-1,2.4246566E-1,-8.599047E-1,-7.259673E-2,-6.249388E-1,3.9861748E-1,-1.0978001E0,-6.0078746E-1,3.2371965E-1],"split_indices":[9,9,18,0,2,0,0,19,1,10,18,9,18,8,18,2,5,18,18,18,9,18,5,18,18,14,1,21,18,11,18,13,4,19,18,18,0,18,18,0,0,18,18,18,8,0,0,0,1,0,0,0,0,0,0,0,0,0,0,0,0,0,0,0,0,0,0,0,0,0,0,0,0,0,0,0,0,0,0,0,0,0,0,0,0,0,0,0,0,0,0],"split_type":[0,0,0,0,0,0,0,0,0,0,0,0,0,0,0,0,0,0,0,0,0,0,0,0,0,0,0,0,0,0,0,0,0,0,0,0,0,0,0,0,0,0,0,0,0,0,0,0,0,0,0,0,0,0,0,0,0,0,0,0,0,0,0,0,0,0,0,0,0,0,0,0,0,0,0,0,0,0,0,0,0,0,0,0,0,0,0,0,0,0,0],"sum_hessian":[8.028476E5,2.9449278E5,5.0835488E5,2.5149208E5,4.300069E4,4.9531866E5,1.3036219E4,2.4305362E5,8.438448E3,1.629179E4,2.67089E4,4.7510356E5,2.0215094E4,7.3665723E3,2.3568706E5,5.286492E3,3.1519565E3,1.3907613E4,2.3841763E3,2.4937662E4,1.7712388E3,4.3518207E4,4.3158534E5,1.618987E4,4.0252244E3,6.6017427E3,7.6482965E2,2.3154542E5,4.141633E3,9.834154E2,4.3030767E3,7.5592053E2,2.396036E3,1.2648256E4,1.259357E3,2.228536E3,1.5564041E2,1.781895E4,7.118712E3,2.6121588E2,1.510023E3,2.8912336E4,1.4605872E4,4.03825E5,2.776034E4,1.2737905E4,3.4519644E3,3.8046978E3,2.2052652E2,5.1794155E3,1.422327E3,6.440837E2,1.20745995E2,2.3152583E5,1.9589846E1,6.075303E2,3.5341023E3,1.9123088E2,7.921845E2,3.9508582E3,3.522187E2,4.3345776E2,3.2246277E2,5.470045E1,2.3413354E3,2.0827976E3,1.0565459E4,6.88759E2,5.705981E2,1.3575035E3,8.7103235E2,1.4020294E4,3.7986558E3,6.787375E3,3.3133698E2,1.0265936E2,1.585565E2,2.3964432E4,4.947905E3,1.3821352E4,7.8452136E2,2.3029486E5,1.7353016E5,2.6736668E4,1.023672E3,1.1029788E4,1.7081177E3,3.795019E3,9.678683E0,1.2881183E2,9.171468E1],"tree_param":{"num_deleted":"0","num_feature":"25","num_nodes":"91","size_leaf_vector":"1"}},{"base_weights":[6.0164098E-2,-1.2449797E0,8.589163E-1,-1.4083011E0,-3.0308983E-1,9.230281E-1,-4.3886158E-1,-1.4448185E0,-4.6598706E-1,-1.0534652E0,9.143258E-2,9.846744E-1,-2.2345962E-1,-1.1145378E0,-1.4555724E0,-1.0762552E-1,-1.4413419E0,-1.2833525E0,3.205463E-1,1.9712587E-1,-1.4810829E0,8.2571644E-1,1.2191516E0,-5.217435E-1,1.0979888E0,-1.4156959E0,-4.376324E-1,-1.4621009E0,-1.0832688E0,1.3308932E-1,-1.5058324E0,1.7123738E-1,-1.4739027E0,-3.854746E-1,-1.4341334E0,4.404907E-1,-4.3709543E-1,-1.2711151E-1,1.1785641E0,-1.5945159E0,-4.3883023E-1,9.476826E-1,-1.8341105E0,1.2277366E0,1.0765381E0,-2.9972807E-1,-1.4861321E0,1.2064781E0,-4.4515568E-1,-4.364245E-1,4.2558596E-1,4.3791503E-2,-4.9102423E-1,-4.386576E-1,2.609546E-1,3.5710332E-1,-4.3921572E-1,9.596328E-2,-4.1984522E-1,-4.390461E-1,-5.3168964E-1,3.9398474E-1,-4.5069298E-1,-4.463079E-1,8.560037E-2,5.97716E-2,-2.3157541E-1,-4.4812658E-1,-1.13030314E-1,5.373969E-3,3.607948E-1,7.496199E-2,-4.4822124E-1,3.6846608E-1,1.0223844E-1,-5.329655E-1,-4.5322445E-1,3.010937E-1,6.86226E-2,-4.3883082E-1,-6.291909E-1,3.675193E-1,3.7971705E-1,-2.0287732E-2,3.4120342E-1,-7.7257627E-3,-3.2516813E-1,-5.523471E-1,-4.388171E-1,3.6512652E-1,-5.6446314E-1,-6.167458E-1,1.6084294E-1],"categories":[],"categories_nodes":[],"categories_segments":[],"categories_sizes":[],"default_left":[0,0,1,0,0,0,0,0,1,1,1,1,1,1,1,1,0,0,1,1,0,1,0,1,0,1,1,1,0,1,0,0,1,0,1,1,0,1,0,0,0,1,0,1,0,0,0,0,0,0,0,0,0,0,0,0,0,0,0,0,0,0,0,0,0,0,0,0,0,0,0,0,0,0,0,0,0,0,0,0,0,0,0,0,0,0,0,0,0,0,0,0,0],"id":2,"left_children":[1,3,5,7,9,11,-1,13,15,17,19,21,23,25,27,29,31,33,35,37,39,41,43,45,47,49,51,53,55,57,59,61,63,65,67,69,-1,71,73,75,-1,77,79,81,83,85,87,89,91,-1,-1,-1,-1,-1,-1,-1,-1,-1,-1,-1,-1,-1,-1,-1,-1,-1,-1,-1,-1,-1,-1,-1,-1,-1,-1,-1,-1,-1,-1,-1,-1,-1,-1,-1,-1,-1,-1,-1,-1,-1,-1,-1,-1],"loss_changes":[7.149838E5,4.0053625E4,6.3331312E4,7.6344375E3,1.1391968E4,2.9262812E4,0E0,7.56625E2,2.8926743E3,4.189208E3,4.190394E3,1.4642656E4,8.326553E3,1.3722148E3,5.0084375E2,2.0391631E3,1.17819824E2,1.5364961E3,4.0429205E2,7.5205786E3,8.527832E-1,7.596372E4,1.9253125E2,3.6888901E3,6.5183887E2,5.1614746E2,1.4537943E3,4.36875E1,3.088749E3,1.4778589E3,7.4522705E0,8.305046E1,5.3861816E1,3.6971057E2,6.116406E2,5.7243494E2,0E0,9.154106E3,2.4288818E2,6.434326E-1,0E0,9.00725E3,1.00053516E3,1.321875E1,6.2829785E2,3.0092666E3,2.4155762E1,1.1856348E2,4.043001E2,0E0,0E0,0E0,0E0,0E0,0E0,0E0,0E0,0E0,0E0,0E0,0E0,0E0,0E0,0E0,0E0,0E0,0E0,0E0,0E0,0E0,0E0,0E0,0E0,0E0,0E0,0E0,0E0,0E0,0E0,0E0,0E0,0E0,0E0,0E0,0E0,0E0,0E0,0E0,0E0,0E0,0E0,0E0,0E0],"parents":[2147483647,0,0,1,1,2,2,3,3,4,4,5,5,7,7,8,8,9,9,10,10,11,11,12,12,13,13,14,14,15,15,16,16,17,17,18,18,19,19,20,20,21,21,22,22,23,23,24,24,25,25,26,26,27,27,28,28,29,29,30,30,31,31,32,32,33,33,34,34,35,35,37,37,38,38,39,39,41,41,42,42,43,43,44,44,45,45,46,46,47,47,48,48],"right_children":[2,4,6,8,10,12,-1,14,16,18,20,22,24,26,28,30,32,34,36,38,40,42,44,46,48,50,52,54,56,58,60,62,64,66,68,70,-1,72,74,76,-1,78,80,82,84,86,88,90,92,-1,-1,-1,-1,-1,-1,-1,-1,-1,-1,-1,-1,-1,-1,-1,-1,-1,-1,-1,-1,-1,-1,-1,-1,-1,-1,-1,-1,-1,-1,-1,-1,-1,-1,-1,-1,-1,-1,-1,-1,-1,-1,-1,-1],"split_conditions":[4.3898916E0,4.296029E-1,1.4720749E2,2.7212245E0,4.784689E-2,3.1056465E1,-4.3886158E-1,-3.5E0,6.2720885E0,1E0,1.4720749E2,1.4699583E2,1.4699583E2,6.634334E-3,1.4699583E2,0E0,-5.5648856E-2,-5.741627E-3,1.4720749E2,1.4699583E2,7.545126E-1,-5.8029044E-1,1.4707315E2,-5.497481E-1,1.4707315E2,1.2102872E0,3.7606615E-1,7.7317934E0,1.4720749E2,1.4707315E2,3.6363637E-1,7.7929254E0,3.6691203E0,-3.5E0,1.4699583E2,1.4699583E2,-4.3709543E-1,-5.8029044E-1,1.4707315E2,5.263158E-1,-4.3883023E-1,2.03311E0,2.7252708E1,2.0410013E0,1.8732853E1,1.0529891E2,3.370947E1,2.3971066E2,1.834E2,-4.364245E-1,4.2558596E-1,4.3791503E-2,-4.9102423E-1,-4.386576E-1,2.609546E-1,3.5710332E-1,-4.3921572E-1,9.596328E-2,-4.1984522E-1,-4.390461E-1,-5.3168964E-1,3.9398474E-1,-4.5069298E-1,-4.463079E-1,8.560037E-2,5.97716E-2,-2.3157541E-1,-4.4812658E-1,-1.13030314E-1,5.373969E-3,3.607948E-1,7.496199E-2,-4.4822124E-1,3.6846608E-1,1.0223844E-1,-5.329655E-1,-4.5322445E-1,3.010937E-1,6.86226E-2,-4.3883082E-1,-6.291909E-1,3.675193E-1,3.7971705E-1,-2.0287732E-2,3.4120342E-1,-7.7257627E-3,-3.2516813E-1,-5.523471E-1,-4.388171E-1,3.6512652E-1,-5.6446314E-1,-6.167458E-1,1.6084294E-1],"split_indices":[9,9,18,0,2,0,0,19,1,10,18,18,18,21,18,11,17,2,18,18,9,18,18,18,18,12,1,14,18,18,2,1,12,19,18,18,0,18,18,2,0,4,9,5,9,0,0,0,8,0,0,0,0,0,0,0,0,0,0,0,0,0,0,0,0,0,0,0,0,0,0,0,0,0,0,0,0,0,0,0,0,0,0,0,0,0,0,0,0,0,0,0,0],"split_type":[0,0,0,0,0,0,0,0,0,0,0,0,0,0,0,0,0,0,0,0,0,0,0,0,0,0,0,0,0,0,0,0,0,0,0,0,0,0,0,0,0,0,0,0,0,0,0,0,0,0,0,0,0,0,0,0,0,0,0,0,0,0,0,0,0,0,0,0,0,0,0,0,0,0,0,0,0,0,0,0,0,0,0,0,0,0,0,0,0,0,0,0,0],"sum_hessian":[6.85845E5,2.6038331E5,4.254617E5,2.2190472E5,3.8478586E4,4.1402938E5,1.1432303E4,2.1362527E5,8.27945E3,1.3260104E4,2.5218482E4,3.9290378E5,2.1125611E4,6.7385864E3,2.0688669E5,6.055412E3,2.2240386E3,1.1360029E4,1.900075E3,2.3630703E4,1.5877787E3,2.3416255E5,1.5874123E5,1.7235691E4,3.8899197E3,4.662873E3,2.0757136E3,2.0331923E5,3.5674424E3,5.165542E3,8.898702E2,4.3532227E1,2.1805063E3,1.63416E3,9.725869E3,1.7803878E3,1.196871E2,1.7761896E4,5.868806E3,2.146586E2,1.3731201E3,2.2389611E5,1.0266441E4,1.4972273E5,9.018491E3,1.4010999E4,3.2246929E3,3.6348906E3,2.5502914E2,4.599778E3,6.309545E1,1.3957439E3,6.7996967E2,2.0331164E5,7.597203E0,5.1146225E2,3.05598E3,4.604832E3,5.6070953E2,7.7043866E2,1.1943152E2,2.6159058E1,1.7373169E1,2.163998E3,1.6508327E1,6.4944244E2,9.8471765E2,9.206013E3,5.198565E2,1.1460256E3,6.343622E2,1.3921886E4,3.8400115E3,5.539514E3,3.2929196E2,6.463979E1,1.5001881E2,2.0772545E5,1.6170661E4,4.2595864E3,6.006855E3,1.3990188E5,9.820863E3,4.5443774E2,8.564053E3,1.0384007E4,3.626993E3,1.9735406E2,3.0273389E3,3.6227024E3,1.2188237E1,9.6860886E1,1.5816826E2],"tree_param":{"num_deleted":"0","num_feature":"25","num_nodes":"93","size_leaf_vector":"1"}},{"base_weights":[5.6006275E-2,-1.1412115E0,7.320807E-1,-1.2436538E0,-3.0540475E-1,7.891668E-1,-3.9008093E-1,-1.2801477E0,-3.926043E-1,-2.2651882E-1,-3.2078927E0,2.2671483E-1,9.326294E-1,-9.2447853E-1,-1.2923614E0,-1.3484536E-1,-1.4199082E0,-4.502871E-1,5.915098E-1,-4.976486E0,-3.940999E-1,-9.4594784E-2,1.0913931E0,9.6696776E-1,-5.1435703E-1,-2.796142E-1,-1.2609763E0,-1.2975773E0,-9.8559684E-1,-1.2191191E0,8.0509E-2,-3.0946476E0,-1.3649318E0,1.8450251E-1,-1.1949267E0,1.1294886E0,-4.0228617E-1,-1.6235433E0,-5.1181364E0,2.631444E-1,-1.0669103E0,1.156514E0,1.814218E-1,8.4452415E-1,1.1530973E0,-6.956404E-1,8.972477E-1,1.3039741E-1,-3.2528248E-1,-3.9666066E-1,-2.1189839E-2,-3.8960594E-1,-3.3029556E-1,3.461816E-1,-3.873222E-1,-4.164368E-1,-7.708796E-2,8.506696E-2,-3.7492016E-1,-1.0057842E0,-5.796084E-1,6.678774E-2,-4.2578176E-1,8.286472E-2,-3.2837442E-1,-4.2018607E-1,-1.7299733E-1,3.4047782E-1,-8.980121E-1,-1.5661684E0,2.6313603E-1,-1.8343515E0,-1.4573927E0,1.4585161E-1,-6.323627E-2,-4.5656878E-1,-1.2691712E-1,3.4706613E-1,-3.8786224E-1,1.6727045E-1,-3.7707594E-1,2.752562E-1,-4.7218427E-1,3.4733528E-1,3.230933E-1,-1.4118275E-1,-3.9585397E-1,3.2657325E-1,-2.1206927E-1],"categories":[],"categories_nodes":[],"categories_segments":[],"categories_sizes":[],"default_left":[0,0,1,0,0,0,0,0,1,1,1,1,0,0,1,0,0,0,0,0,0,0,0,1,1,0,1,1,0,0,1,0,0,0,0,0,0,1,1,0,0,0,0,1,0,0,0,0,0,0,0,0,0,0,0,0,0,0,0,0,0,0,0,0,0,0,0,0,0,0,0,0,0,0,0,0,0,0,0,0,0,0,0,0,0,0,0,0,0],"id":3,"left_children":[1,3,5,7,9,11,-1,13,15,17,19,21,23,25,27,29,31,33,35,37,-1,39,41,43,45,47,49,51,53,55,57,59,61,63,65,67,-1,69,71,73,75,77,79,81,83,85,87,-1,-1,-1,-1,-1,-1,-1,-1,-1,-1,-1,-1,-1,-1,-1,-1,-1,-1,-1,-1,-1,-1,-1,-1,-1,-1,-1,-1,-1,-1,-1,-1,-1,-1,-1,-1,-1,-1,-1,-1,-1,-1],"loss_changes":[4.5866853E5,1.7509531E4,4.2016984E4,5.656875E3,5.1101475E3,2.8423625E4,0E0,7.57125E2,1.9825708E3,3.979339E3,1.9734985E3,1.9891092E4,1.39461875E4,1.2577495E3,2.68375E2,1.3995342E3,1.3473169E2,8.0701343E3,4.853574E3,1.3956104E2,0E0,1.8156027E4,1.1483262E3,6.2467812E3,1.6646504E3,1.1443889E3,2.766797E2,3.43125E1,1.8472134E3,1.6017712E2,1.348821E3,9.952179E0,1.26463135E2,1.0803102E3,9.975469E2,8.039209E1,0E0,1.1681119E2,6.7069336E1,4.0333035E3,4.1111885E3,1.6427734E1,7.0071906E2,2.9195422E4,3.7015625E1,8.0803394E2,2.2739551E2,0E0,0E0,0E0,0E0,0E0,0E0,0E0,0E0,0E0,0E0,0E0,0E0,0E0,0E0,0E0,0E0,0E0,0E0,0E0,0E0,0E0,0E0,0E0,0E0,0E0,0E0,0E0,0E0,0E0,0E0,0E0,0E0,0E0,0E0,0E0,0E0,0E0,0E0,0E0,0E0,0E0,0E0],"parents":[2147483647,0,0,1,1,2,2,3,3,4,4,5,5,7,7,8,8,9,9,10,10,11,11,12,12,13,13,14,14,15,15,16,16,17,17,18,18,19,19,21,21,22,22,23,23,24,24,25,25,26,26,27,27,28,28,29,29,30,30,31,31,32,32,33,33,34,34,35,35,37,37,38,38,39,39,40,40,41,41,42,42,43,43,44,44,45,45,46,46],"right_children":[2,4,6,8,10,12,-1,14,16,18,20,22,24,26,28,30,32,34,36,38,-1,40,42,44,46,48,50,52,54,56,58,60,62,64,66,68,-1,70,72,74,76,78,80,82,84,86,88,-1,-1,-1,-1,-1,-1,-1,-1,-1,-1,-1,-1,-1,-1,-1,-1,-1,-1,-1,-1,-1,-1,-1,-1,-1,-1,-1,-1,-1,-1,-1,-1,-1,-1,-1,-1,-1,-1,-1,-1,-1,-1],"split_conditions":[1.9E0,3.8989168E-1,1.4720749E2,2.5815778E0,9.068231E1,4.7397114E1,-3.9008093E-1,-3.5E0,2.8948474E-1,1.4699583E2,-5.34765E-1,1.4699583E2,4.400442E1,0E0,1.4699583E2,3.6363637E-1,-1.5621282E-1,-3.5E0,1.4720749E2,-3.925926E0,-3.940999E-1,-3.5E0,1.4707315E2,1.4699583E2,1.4699583E2,4.197725E-1,1.20229E-2,9.066667E-1,1.4707315E2,1E-1,6.2720885E0,6.2720885E0,2.611202E-1,3.370947E1,5E-1,1.1826875E2,-4.0228617E-1,3.2113957E0,2.03311E0,1.0704977E1,1.0305E2,2.3971066E2,7.757017E0,-5.802209E-1,1.4707315E2,-4.9947478E-2,1.4705937E2,1.3039741E-1,-3.2528248E-1,-3.9666066E-1,-2.1189839E-2,-3.8960594E-1,-3.3029556E-1,3.461816E-1,-3.873222E-1,-4.164368E-1,-7.708796E-2,8.506696E-2,-3.7492016E-1,-1.0057842E0,-5.796084E-1,6.678774E-2,-4.2578176E-1,8.286472E-2,-3.2837442E-1,-4.2018607E-1,-1.7299733E-1,3.4047782E-1,-8.980121E-1,-1.5661684E0,2.6313603E-1,-1.8343515E0,-1.4573927E0,1.4585161E-1,-6.323627E-2,-4.5656878E-1,-1.2691712E-1,3.4706613E-1,-3.8786224E-1,1.6727045E-1,-3.7707594E-1,2.752562E-1,-4.7218427E-1,3.4733528E-1,3.230933E-1,-1.4118275E-1,-3.9585397E-1,3.2657325E-1,-2.1206927E-1],"split_indices":[8,9,18,0,9,9,0,19,17,18,18,18,0,11,18,2,4,19,18,3,0,19,18,18,18,1,17,23,18,8,1,1,1,0,19,0,0,12,4,0,24,0,0,18,18,4,18,0,0,0,0,0,0,0,0,0,0,0,0,0,0,0,0,0,0,0,0,0,0,0,0,0,0,0,0,0,0,0,0,0,0,0,0,0,0,0,0,0,0],"split_type":[0,0,0,0,0,0,0,0,0,0,0,0,0,0,0,0,0,0,0,0,0,0,0,0,0,0,0,0,0,0,0,0,0,0,0,0,0,0,0,0,0,0,0,0,0,0,0,0,0,0,0,0,0,0,0,0,0,0,0,0,0,0,0,0,0,0,0,0,0,0,0,0,0,0,0,0,0,0,0,0,0,0,0,0,0,0,0,0,0],"sum_hessian":[5.666718E5,2.045124E5,3.6215938E5,1.8218198E5,2.2330424E4,3.522651E5,9.894283E3,1.7469014E5,7.491839E3,2.1739838E4,5.905855E2,7.159176E4,2.8067334E5,5.801884E3,1.6888825E5,5.989742E3,1.5020966E3,1.7071092E4,4.6687466E3,3.052027E2,2.8538278E2,5.2195336E4,1.9396422E4,2.7416766E5,6.5057007E3,1.9902145E3,3.8116692E3,1.6606212E5,2.8261362E3,9.931434E2,4.9965986E3,4.727932E1,1.4548173E3,9.214688E3,7.8564023E3,3.6523755E3,1.01637134E3,1.2600035E1,2.9260266E2,3.8155977E4,1.403936E4,1.8100223E4,1.2961989E3,1.6537894E5,1.0878871E5,5.7658022E3,7.398984E2,1.0537972E3,9.3641724E2,3.6245662E3,1.8710303E2,1.651264E5,9.357191E2,3.5276703E2,2.4733691E3,8.440537E2,1.490897E2,4.335441E3,6.611579E2,3.8130653E1,9.1486635E0,4.7661736E1,1.4071555E3,8.598764E3,6.1592523E2,5.894164E3,1.9622382E3,3.6477585E3,4.6168566E0,5.2984805E0,7.301554E0,5.9945896E1,2.3265675E2,2.5947182E4,1.2208795E4,8.225489E3,5.813871E3,1.8097793E4,2.429092E0,1.0279355E3,2.6826328E2,1.6053389E5,4.8450415E3,1.02468875E5,6.319833E3,4.2383203E3,1.5274819E3,6.614988E2,7.839965E1],"tree_param":{"num_deleted":"0","num_feature":"25","num_nodes":"89","size_leaf_vector":"1"}},{"base_weights":[5.0768856E-2,-9.368354E-1,7.131609E-1,-1.1391927E0,-2.0198935E-1,7.6118904E-1,-3.6057317E-1,-1.1805978E0,-3.1255367E-1,-7.4792147E-1,4.9959425E-2,5.772918E-1,1.0967458E0,-7.797876E-1,-1.1957535E0,-3.59624E-2,-1.1255121E0,-9.94082E-1,1.1688142E-1,2.0838045E-1,-6.424182E-1,6.724932E-1,-1.3121966E0,1.1106921E0,8.83331E-1,-2.0092918E-1,-1.1408755E0,-1.2015291E0,-9.075315E-1,-8.535223E-1,2.8866327E-1,-1.2411181E0,3.0862918E-1,-3.1089613E-1,-1.1431707E0,-1.1050047E-1,6.23391E-1,3.1783646E-1,-9.232154E-1,-4.3106052E-1,-1.7573235E0,-7.021961E-1,7.1026677E-1,-1.2136356E0,-1.3469166E0,1.1110393E0,-4.9278727E-1,-9.1402924E-1,9.260374E-1,1.376723E-1,-2.0501763E-1,-3.6535797E-1,-1.937684E-2,-3.6070043E-1,-2.8617382E-1,-3.090616E-1,8.031548E-2,-3.9349627E-1,-6.8531595E-2,1.3406298E-1,-3.8584742E-1,-1.2844165E-1,-4.0042266E-1,1.734509E-1,-8.125786E-1,-6.097499E-1,-5.0728112E-2,-5.0667087E-3,-3.6509576E-1,2.2494126E-2,-4.4848177E-1,3.1707516E-1,-3.5916057E-1,1.13491185E-1,-3.6241302E-1,-3.800723E-1,-8.59164E-3,-7.1563005E-2,-5.170481E-1,-6.6070956E-1,-3.4537998E-1,-1.2552506E-1,-4.4759065E-1,2.3447305E-1,-1.31553E-2,-3.5653242E-1,-3.7838653E-1,-4.143347E-1,-3.6585876E-1,3.3338714E-1,2.796943E-1,-2.1762861E-2,-7.270381E-1,1.7639868E-1,3.2058632E-1],"categories":[],"categories_nodes":[],"categories_segments":[],"categories_sizes":[],"default_left":[0,0,1,0,0,1,0,0,1,1,1,1,0,0,1,1,1,0,1,0,1,0,0,0,0,0,1,1,0,1,1,0,0,0,0,1,0,1,1,0,1,1,1,0,0,0,0,0,0,0,0,0,0,0,0,0,0,0,0,0,0,0,0,0,0,0,0,0,0,0,0,0,0,0,0,0,0,0,0,0,0,0,0,0,0,0,0,0,0,0,0,0,0,0,0],"id":4,"left_children":[1,3,5,7,9,11,-1,13,15,17,19,21,23,25,27,29,31,33,35,37,39,41,43,45,47,49,51,53,55,57,59,61,63,65,67,69,71,73,75,77,79,81,83,85,87,89,-1,91,93,-1,-1,-1,-1,-1,-1,-1,-1,-1,-1,-1,-1,-1,-1,-1,-1,-1,-1,-1,-1,-1,-1,-1,-1,-1,-1,-1,-1,-1,-1,-1,-1,-1,-1,-1,-1,-1,-1,-1,-1,-1,-1,-1,-1,-1,-1],"loss_changes":[3.0298447E5,2.764725E4,2.5497547E4,4.9885938E3,5.522586E3,1.6686781E4,0E0,8.417656E2,1.5629009E3,2.6996343E3,3.0125774E3,3.1424605E4,2.833672E2,1.056603E3,2.2098438E2,1.3778767E3,2.933401E2,1.00411914E3,3.2386026E2,2.7683562E3,1.2032705E3,8.636445E3,2.6626953E1,8.546875E1,4.5105078E2,6.1928986E2,2.5711035E2,2.4453125E1,3.7988232E2,4.2138452E2,9.247523E2,1.2293506E2,1.0494009E2,4.300921E2,6.724834E2,4.985843E2,6.875254E2,1.8800564E3,6.049485E2,1.068188E3,2.1696118E2,9.952073E2,8.705414E3,6.677246E-1,2.4888672E1,2.3984375E0,0E0,1.7067487E2,2.7534473E2,0E0,0E0,0E0,0E0,0E0,0E0,0E0,0E0,0E0,0E0,0E0,0E0,0E0,0E0,0E0,0E0,0E0,0E0,0E0,0E0,0E0,0E0,0E0,0E0,0E0,0E0,0E0,0E0,0E0,0E0,0E0,0E0,0E0,0E0,0E0,0E0,0E0,0E0,0E0,0E0,0E0,0E0,0E0,0E0,0E0,0E0],"parents":[2147483647,0,0,1,1,2,2,3,3,4,4,5,5,7,7,8,8,9,9,10,10,11,11,12,12,13,13,14,14,15,15,16,16,17,17,18,18,19,19,20,20,21,21,22,22,23,23,24,24,25,25,26,26,27,27,28,28,29,29,30,30,31,31,32,32,33,33,34,34,35,35,36,36,37,37,38,38,39,39,40,40,41,41,42,42,43,43,44,44,45,45,47,47,48,48],"right_children":[2,4,6,8,10,12,-1,14,16,18,20,22,24,26,28,30,32,34,36,38,40,42,44,46,48,50,52,54,56,58,60,62,64,66,68,70,72,74,76,78,80,82,84,86,88,90,-1,92,94,-1,-1,-1,-1,-1,-1,-1,-1,-1,-1,-1,-1,-1,-1,-1,-1,-1,-1,-1,-1,-1,-1,-1,-1,-1,-1,-1,-1,-1,-1,-1,-1,-1,-1,-1,-1,-1,-1,-1,-1,-1,-1,-1,-1,-1,-1],"split_conditions":[7.888087E0,4.296029E-1,1.4720749E2,2.5815778E0,4.784689E-2,1.4699583E2,-3.6057317E-1,-3.5E0,1.7670348E-1,1E0,1.8621494E-1,-5.8029044E-1,1.4707315E2,0E0,9.066667E-1,-1.5188043E-1,2.3770583E2,-5.741627E-3,1.4699583E2,4.834157E1,1.5891491E0,-1.508386E-1,2.7252708E1,2.3971066E2,-1.4328413E-1,1.0018785E-1,8.015268E-3,1.4699583E2,1.1E-1,1.3518518E0,1.4721104E2,-1.4122138E-2,2.8577194E1,-4.1284375E-2,1.0526316E-2,-5.2713424E-1,1.4720749E2,1.4720749E2,9.933409E-1,1.3308795E1,-5.8029044E-1,2.1052632E-1,1.8785399E0,9.59596E-2,3.370947E1,1.353061E2,-4.9278727E-1,3.6842105E-1,4.9480195E0,1.376723E-1,-2.0501763E-1,-3.6535797E-1,-1.937684E-2,-3.6070043E-1,-2.8617382E-1,-3.090616E-1,8.031548E-2,-3.9349627E-1,-6.8531595E-2,1.3406298E-1,-3.8584742E-1,-1.2844165E-1,-4.0042266E-1,1.734509E-1,-8.125786E-1,-6.097499E-1,-5.0728112E-2,-5.0667087E-3,-3.6509576E-1,2.2494126E-2,-4.4848177E-1,3.1707516E-1,-3.5916057E-1,1.13491185E-1,-3.6241302E-1,-3.800723E-1,-8.59164E-3,-7.1563005E-2,-5.170481E-1,-6.6070956E-1,-3.4537998E-1,-1.2552506E-1,-4.4759065E-1,2.3447305E-1,-1.31553E-2,-3.5653242E-1,-3.7838653E-1,-4.143347E-1,-3.6585876E-1,3.3338714E-1,2.796943E-1,-2.1762861E-2,-7.270381E-1,1.7639868E-1,3.2058632E-1],"split_indices":[9,9,18,0,2,18,0,19,5,10,4,18,18,11,23,5,4,2,18,0,1,5,9,0,5,13,17,18,8,3,18,17,0,15,7,18,18,18,1,0,18,7,5,19,0,0,0,7,1,0,0,0,0,0,0,0,0,0,0,0,0,0,0,0,0,0,0,0,0,0,0,0,0,0,0,0,0,0,0,0,0,0,0,0,0,0,0,0,0,0,0,0,0,0,0],"split_type":[0,0,0,0,0,0,0,0,0,0,0,0,0,0,0,0,0,0,0,0,0,0,0,0,0,0,0,0,0,0,0,0,0,0,0,0,0,0,0,0,0,0,0,0,0,0,0,0,0,0,0,0,0,0,0,0,0,0,0,0,0,0,0,0,0,0,0,0,0,0,0,0,0,0,0,0,0,0,0,0,0,0,0,0,0,0,0,0,0,0,0,0,0,0,0],"sum_hessian":[4.6315094E5,1.8593173E5,2.772192E5,1.4578523E5,4.01465E4,2.7043728E5,6.7818936E3,1.3883047E5,6.9547695E3,1.267816E4,2.7468342E4,1.7469856E5,9.573874E4,5.0601997E3,1.3377027E5,5.1899775E3,1.764792E3,9.86973E3,2.8084297E3,2.2354602E4,5.1137393E3,1.6631903E5,8.379521E3,8.986265E4,5.8760903E3,1.944767E3,3.1154326E3,1.3113958E5,2.6306887E3,1.4757671E3,3.7142102E3,1.6336606E3,1.3113135E2,1.768966E3,8.100765E3,1.9372028E3,8.7122705E2,2.0383656E4,1.9709457E3,4.2994E3,8.1433936E2,4.4473076E3,1.6187172E5,2.1888865E3,6.190635E3,8.985161E4,1.1038603E1,1.359442E2,5.740146E3,8.206934E2,1.1240736E3,2.9067742E3,2.0865851E2,1.3071104E5,4.285375E2,2.3826646E3,2.4802419E2,8.508721E2,6.24895E2,3.3755918E3,3.3861838E2,1.6958922E2,1.4640714E3,1.2062095E2,1.0510396E1,1.3418636E2,1.6347795E3,4.9892554E2,7.6018394E3,1.707819E3,2.2938376E2,7.040221E2,1.6720491E2,1.9607188E4,7.764682E2,1.4232466E3,5.4769916E2,3.7425405E3,5.5685925E2,4.6878195E2,3.4555743E2,3.2724658E3,1.1748419E3,1.4788834E5,1.398339E4,1.4428414E3,7.4604517E2,4.8754624E3,1.3151724E3,8.9721055E4,1.3055429E2,8.762468E1,4.831951E1,1.704552E3,4.0355942E3],"tree_param":{"num_deleted":"0","num_feature":"25","num_nodes":"95","size_leaf_vector":"1"}},{"base_weights":[4.36027E-2,-1.0653056E0,5.210517E-1,-1.113112E0,-2.5118145E-1,3.0401222E-2,7.381297E-1,-6.631723E-1,-1.1319749E0,-4.2168383E-2,-1.0976019E0,-1.5997103E-1,6.257247E-1,7.7355236E-1,-3.4219098E-1,-1.4851691E-1,-1.0529732E0,-1.1394105E0,-7.449602E-1,-1.4718813E0,9.3735225E-2,-1.1622082E0,8.1619817E-1,5.777435E-2,-1.1898187E0,1.0043879E0,-3.4522069E-1,8.1269556E-1,-4.2887494E-1,3.1804478E-1,-7.443749E-1,-1.1449776E0,-4.5413364E-2,-3.4232014E-1,-8.791406E-1,1.088478E0,-3.459711E-1,-1.1710093E0,-1.8986517E0,2.4060823E-1,-1.1716734E0,-1.4440666E0,-8.945012E-1,1.104915E0,-4.6151897E-1,8.7325156E-2,-2.031215E0,-1.1642629E0,-1.2604825E0,1.0892571E0,1.2034638E-1,8.403497E-1,-8.498322E-1,-5.301827E-1,6.7943823E-1,-3.7857434E-1,1.9133903E-1,-3.434651E-1,5.7457316E-1,1.3442258E0,-3.4906283E-1,1.4892264E-1,-4.3282184E-1,-3.4798872E-1,1.1837118E-1,3.4026858E-1,8.712883E-2,-3.8098013E-1,2.117952E-1,-6.84938E-1,-4.5474324E-1,-4.430057E-2,3.68684E-1,-3.7748897E-1,-1.7542148E-1,-5.801292E-1,-3.4994906E-1,3.778618E-1,-3.392083E-1,3.5708523E-1,-2.6516694E-1,1.4631097E-1,-1.605498E-2,-5.3437936E-1,-1.2689006E0,-3.442093E-1,-3.5582197E-1,-4.431572E-1,-3.7295622E-1,3.268743E-1,-2.8725785E-1,2.1110453E-1,-1.1744548E-1,2.1338739E-1,3.218736E-1,-9.162497E-1,2.4378099E-1,-1.1408531E-1,-3.2053703E-1,2.925539E-1,-1.8011615E-1],"categories":[],"categories_nodes":[],"categories_segments":[],"categories_sizes":[],"default_left":[0,0,0,0,1,1,1,0,1,0,1,1,0,0,0,0,1,1,0,0,1,0,0,1,0,0,0,0,1,0,1,0,0,0,1,0,0,0,1,1,0,1,0,1,0,0,0,0,0,0,0,1,0,1,0,0,0,0,0,0,0,0,0,0,0,0,0,0,0,0,0,0,0,0,0,0,0,0,0,0,0,0,0,0,0,0,0,0,0,0,0,0,0,0,0,0,0,0,0,0,0],"id":5,"left_children":[1,3,5,7,9,11,13,15,17,19,21,23,25,27,-1,29,31,33,35,37,39,41,43,45,47,49,-1,51,53,55,57,59,61,-1,63,65,-1,67,69,71,73,75,77,79,-1,81,83,85,87,89,91,93,95,97,99,-1,-1,-1,-1,-1,-1,-1,-1,-1,-1,-1,-1,-1,-1,-1,-1,-1,-1,-1,-1,-1,-1,-1,-1,-1,-1,-1,-1,-1,-1,-1,-1,-1,-1,-1,-1,-1,-1,-1,-1,-1,-1,-1,-1,-1,-1],"loss_changes":[2.013999E5,4.4548516E3,2.8321203E4,9.1634375E2,1.1226555E3,9.24405E3,1.2268156E4,8.722589E2,2.9715625E2,9.9088385E2,1.5569165E2,1.3858938E4,1.3294274E4,8.516391E3,0E0,5.2210754E2,2.2856616E2,4.2296875E1,1.4660325E3,5.4388E1,8.637213E2,8.990674E1,2.7282433E1,3.1474966E3,1.7539062E1,1.2213281E3,0E0,8.0564375E3,6.4030237E2,5.308979E2,8.7813367E2,2.3422607E2,1.5815672E2,0E0,2.3206326E2,1.1870148E1,0E0,4.8866608E1,2.3742676E1,1.6003892E3,2.309021E1,7.785718E1,3.1801672E2,6.443184E0,0E0,2.8368206E3,3.8598462E2,1.0556641E0,8.530273E0,9.955078E0,4.2655045E2,5.1719688E3,1.0506672E4,4.2056604E2,1.8085728E2,0E0,0E0,0E0,0E0,0E0,0E0,0E0,0E0,0E0,0E0,0E0,0E0,0E0,0E0,0E0,0E0,0E0,0E0,0E0,0E0,0E0,0E0,0E0,0E0,0E0,0E0,0E0,0E0,0E0,0E0,0E0,0E0,0E0,0E0,0E0,0E0,0E0,0E0,0E0,0E0,0E0,0E0,0E0,0E0,0E0,0E0],"parents":[2147483647,0,0,1,1,2,2,3,3,4,4,5,5,6,6,7,7,8,8,9,9,10,10,11,11,12,12,13,13,15,15,16,16,17,17,18,18,19,19,20,20,21,21,22,22,23,23,24,24,25,25,27,27,28,28,29,29,30,30,31,31,32,32,34,34,35,35,37,37,38,38,39,39,40,40,41,41,42,42,43,43,45,45,46,46,47,47,48,48,49,49,50,50,51,51,52,52,53,53,54,54],"right_children":[2,4,6,8,10,12,14,16,18,20,22,24,26,28,-1,30,32,34,36,38,40,42,44,46,48,50,-1,52,54,56,58,60,62,-1,64,66,-1,68,70,72,74,76,78,80,-1,82,84,86,88,90,92,94,96,98,100,-1,-1,-1,-1,-1,-1,-1,-1,-1,-1,-1,-1,-1,-1,-1,-1,-1,-1,-1,-1,-1,-1,-1,-1,-1,-1,-1,-1,-1,-1,-1,-1,-1,-1,-1,-1,-1,-1,-1,-1,-1,-1,-1,-1,-1,-1],"split_conditions":[4.296029E-1,2.5815778E0,5.505054E1,-3.5E0,3.464674E-1,1.4699583E2,1.4720749E2,0E0,1.4699583E2,5.8666664E-1,3.8766682E0,-5.8029044E-1,1.4720749E2,4.005567E1,-3.4219098E-1,4.197725E-1,8.015268E-3,9.066667E-1,1.4720749E2,9.4736844E-1,1.4707315E2,1.4699583E2,2.0076336E-1,6.7627687E0,9.449252E-1,1.4707315E2,-3.4522069E-1,8.3E2,1.4699583E2,1.7066666E-1,1.656318E0,-4.7942585E-1,1.1600872E-1,-3.4232014E-1,-1.29874E-3,1.4707315E2,-3.459711E-1,8.4210527E-1,-4.7255542E-2,1.4699583E2,1.8133434E0,6.2720885E0,1.4720749E2,1.5372983E-2,-4.6151897E-1,1.0526316E-2,1.5158845E1,4.784689E-2,7.545126E-1,2.3971066E2,4.4210526E-1,1.4699583E2,9.116332E0,-6.762398E-2,1.4707315E2,-3.7857434E-1,1.9133903E-1,-3.434651E-1,5.7457316E-1,1.3442258E0,-3.4906283E-1,1.4892264E-1,-4.3282184E-1,-3.4798872E-1,1.1837118E-1,3.4026858E-1,8.712883E-2,-3.8098013E-1,2.117952E-1,-6.84938E-1,-4.5474324E-1,-4.430057E-2,3.68684E-1,-3.7748897E-1,-1.7542148E-1,-5.801292E-1,-3.4994906E-1,3.778618E-1,-3.392083E-1,3.5708523E-1,-2.6516694E-1,1.4631097E-1,-1.605498E-2,-5.3437936E-1,-1.2689006E0,-3.442093E-1,-3.5582197E-1,-4.431572E-1,-3.7295622E-1,3.268743E-1,-2.8725785E-1,2.1110453E-1,-1.1744548E-1,2.1338739E-1,3.218736E-1,-9.162497E-1,2.4378099E-1,-1.1408531E-1,-3.2053703E-1,2.925539E-1,-1.8011615E-1],"split_indices":[9,0,9,19,14,18,18,11,18,23,21,18,18,0,0,1,17,23,18,2,18,18,17,1,18,18,0,8,18,23,14,2,12,0,1,18,0,2,12,18,23,1,18,5,0,7,9,2,9,0,7,18,0,5,18,0,0,0,0,0,0,0,0,0,0,0,0,0,0,0,0,0,0,0,0,0,0,0,0,0,0,0,0,0,0,0,0,0,0,0,0,0,0,0,0,0,0,0,0,0,0],"split_type":[0,0,0,0,0,0,0,0,0,0,0,0,0,0,0,0,0,0,0,0,0,0,0,0,0,0,0,0,0,0,0,0,0,0,0,0,0,0,0,0,0,0,0,0,0,0,0,0,0,0,0,0,0,0,0,0,0,0,0,0,0,0,0,0,0,0,0,0,0,0,0,0,0,0,0,0,0,0,0,0,0,0,0,0,0,0,0,0,0,0,0,0,0,0,0,0,0,0,0,0,0],"sum_hessian":[3.8039747E5,1.1448845E5,2.65909E5,1.0813749E5,6.350963E3,8.1562055E4,1.8434695E5,4.3527573E3,1.03784734E5,5.0940063E3,1.2569568E3,6.179874E4,1.9763316E4,1.8093597E5,3.410981E3,1.8768275E3,2.47593E3,1.01826305E5,1.9584266E3,4.4269705E2,4.651309E3,1.2163142E3,4.0642506E1,5.101222E4,1.0786522E4,1.6291199E4,3.4721167E3,1.7523222E5,5.7037544E3,1.0518655E3,8.24962E2,2.2680325E3,2.078975E2,1.0117923E5,6.470784E2,3.563255E2,1.6021011E3,2.6074622E2,1.8195082E2,4.1681533E3,4.8315558E2,5.9104114E2,6.252731E2,3.6505962E1,4.1365438E0,5.0301043E4,7.111747E2,7.929953E3,2.8565686E3,1.4863388E4,1.4278118E3,1.723656E5,2.8666123E3,5.226717E3,4.7703754E2,1.7662479E2,8.752408E2,7.1725256E2,1.077094E2,7.3182726E0,2.260714E3,1.493958E2,5.850171E1,5.307002E2,1.163782E2,3.360575E2,2.0268013E1,2.4809683E2,1.2649394E1,8.973908E1,9.221174E1,2.991937E3,1.1762164E3,4.1983157E2,6.3324017E1,2.1277493E2,3.782662E2,6.1452217E1,5.6382086E2,3.538914E1,1.1168203E0,1.309133E4,3.7209715E4,6.388997E2,7.227502E1,4.488746E3,3.4412073E3,2.0771149E2,2.6488572E3,1.4861428E4,1.9597919E0,6.68025E2,7.597867E2,1.1085243E5,6.151317E4,1.2326461E3,1.6339662E3,4.0893906E3,1.137326E3,3.8800305E2,8.903448E1],"tree_param":{"num_deleted":"0","num_feature":"25","num_nodes":"101","size_leaf_vector":"1"}},{"base_weights":[3.6957733E-2,-1.0124391E0,4.4953865E-1,-1.0683408E0,-1.9957149E-1,4.1625082E-2,6.67737E-1,-5.833521E-1,-1.0908005E0,-3.4405753E-2,-1.0926586E0,-1.1371819E-1,6.169288E-1,7.4592507E-1,-6.287595E-2,-1.0729208E0,-1.8940872E-1,-1.0989525E0,-7.292552E-1,3.124573E-1,-5.011896E-1,-3.3595392E-1,6.824478E-1,5.1971402E-2,-1.1381334E0,9.618017E-1,-3.3196974E-1,8.0222017E-1,-2.407499E-1,4.9779773E-1,-1.3070062E0,-1.1131163E0,4.5515126E-1,6.9839105E-2,-7.7794904E-1,-3.3005217E-1,-7.638888E-1,-2.3728524E-1,-3.3252844E-1,4.7145295E-1,-1.3037121E0,-1.1276219E0,-1.1984684E-1,4.2027977E-1,-2.8698912E-1,1.8571988E-1,-3.0366495E-1,-1.1195385E0,-1.1861823E0,1.0627023E0,1.01568654E-1,8.1692684E-1,-3.2976806E-1,1.5921608E-1,-4.6418312E-1,5.512807E-1,-3.2925847E-1,-1.6928029E0,9.149682E-1,-5.052591E-1,-3.3115125E-1,3.7611422E-1,-3.801863E-1,-2.1478072E-1,1.1644397E-1,-3.0801854E-1,2.8503862E-1,3.2657376E-1,-3.3323556E-1,1.9172594E-1,-3.3190036E-1,1.6966432E-1,-3.48589E-1,-7.4030805E-1,-5.3008106E-2,-3.7920022E-1,-3.947206E-2,3.9128926E-2,-3.4330532E-1,9.024955E-2,-1.3960786E-1,-1.7867025E-2,-3.9871013E-1,-3.3493668E-1,-3.7384284E-1,-3.949454E-1,-3.5276806E-1,3.1893608E-1,-2.990594E-1,1.1510058E-1,-3.3512205E-1,2.0927367E-1,3.1469026E-1,1.7341039E-1,-2.5617698E-1,-6.8960604E-3,-2.2692363E-1,1.10265516E-1,3.2302538E-1,-6.8911093E-1,-9.8322555E-2,-8.8357097E-1,2.7998778E-1],"categories":[],"categories_nodes":[],"categories_segments":[],"categories_sizes":[],"default_left":[0,0,0,0,1,1,1,0,1,1,1,1,0,0,1,0,0,1,1,0,1,0,0,0,0,0,0,1,0,1,0,0,0,0,1,0,0,1,0,1,0,0,0,0,0,1,1,0,0,0,0,1,0,1,0,1,0,1,0,0,0,0,0,0,0,0,0,0,0,0,0,0,0,0,0,0,0,0,0,0,0,0,0,0,0,0,0,0,0,0,0,0,0,0,0,0,0,0,0,0,0,0,0],"id":6,"left_children":[1,3,5,7,9,11,13,15,17,19,21,23,25,27,29,31,33,35,37,39,41,-1,43,45,47,49,-1,51,53,55,57,59,61,63,65,-1,67,69,-1,71,73,75,77,-1,-1,79,81,83,85,87,89,91,-1,93,95,97,-1,99,101,-1,-1,-1,-1,-1,-1,-1,-1,-1,-1,-1,-1,-1,-1,-1,-1,-1,-1,-1,-1,-1,-1,-1,-1,-1,-1,-1,-1,-1,-1,-1,-1,-1,-1,-1,-1,-1,-1,-1,-1,-1,-1,-1,-1],"loss_changes":[1.3609816E5,4.0300078E3,2.0082238E4,9.027656E2,8.412204E2,7.0279062E3,8.397961E3,7.077971E2,2.3233594E2,7.803539E2,4.331543E1,1.0509946E4,9.937762E3,7.3762656E3,9.912659E3,1.01122925E2,3.1142743E2,3.0242188E1,3.2561896E2,7.094534E2,4.8997028E2,0E0,1.5648363E1,2.5348804E3,5.8564453E0,1.2083545E3,0E0,3.5126953E3,6.406997E2,8.352949E2,3.7851099E3,6.2285156E0,5.7026768E1,3.5326163E2,2.6830997E2,0E0,1.8257884E2,5.8163434E2,0E0,3.8628796E2,3.2199353E2,1.04418945E2,3.2858774E2,0E0,0E0,2.9026008E3,3.6441675E3,5.410156E-1,1.2148438E0,1.078418E1,5.0251428E2,3.4508828E3,0E0,1.0891558E3,5.923718E2,9.1386206E2,0E0,3.1008262E3,4.456848E1,0E0,0E0,0E0,0E0,0E0,0E0,0E0,0E0,0E0,0E0,0E0,0E0,0E0,0E0,0E0,0E0,0E0,0E0,0E0,0E0,0E0,0E0,0E0,0E0,0E0,0E0,0E0,0E0,0E0,0E0,0E0,0E0,0E0,0E0,0E0,0E0,0E0,0E0,0E0,0E0,0E0,0E0,0E0,0E0],"parents":[2147483647,0,0,1,1,2,2,3,3,4,4,5,5,6,6,7,7,8,8,9,9,10,10,11,11,12,12,13,13,14,14,15,15,16,16,17,17,18,18,19,19,20,20,22,22,23,23,24,24,25,25,27,27,28,28,29,29,30,30,31,31,32,32,33,33,34,34,36,36,37,37,39,39,40,40,41,41,42,42,45,45,46,46,47,47,48,48,49,49,50,50,51,51,53,53,54,54,55,55,57,57,58,58],"right_children":[2,4,6,8,10,12,14,16,18,20,22,24,26,28,30,32,34,36,38,40,42,-1,44,46,48,50,-1,52,54,56,58,60,62,64,66,-1,68,70,-1,72,74,76,78,-1,-1,80,82,84,86,88,90,92,-1,94,96,98,-1,100,102,-1,-1,-1,-1,-1,-1,-1,-1,-1,-1,-1,-1,-1,-1,-1,-1,-1,-1,-1,-1,-1,-1,-1,-1,-1,-1,-1,-1,-1,-1,-1,-1,-1,-1,-1,-1,-1,-1,-1,-1,-1,-1,-1,-1],"split_conditions":[4.296029E-1,2.5815778E0,6.407581E1,-3.5E0,7.7929254E0,1.4699583E2,2.03311E0,-8.591134E-2,9.066667E-1,-5.0093927E-3,3.6691203E0,-5.8029044E-1,1.4720749E2,3.1056465E1,1E0,1.1E-1,2.1716237E-1,1.4699583E2,1.4720749E2,9.4634964E1,1.7786713E-1,-3.3595392E-1,-3.242194E-2,1.49184885E1,9.449252E-1,1.4707315E2,-3.3196974E-1,1.4720749E2,4.834157E1,1.4720749E2,1.2618213E2,0E0,-1.5028178E-2,5.973333E-1,1.656318E0,-3.3005217E-1,1.4707315E2,0E0,-3.3252844E-1,1.4720749E2,1.4699583E2,2E-1,2.0064037E-1,4.2027977E-1,-2.8698912E-1,1.7052631E0,-3.8215443E-2,5.505054E1,7.545126E-1,2.3971066E2,1.0704977E1,1.4699583E2,-3.2976806E-1,2.5263157E-1,1.365E2,1.4699583E2,-3.2925847E-1,-4.503628E-1,3.5394675E-1,-5.052591E-1,-3.3115125E-1,3.7611422E-1,-3.801863E-1,-2.1478072E-1,1.1644397E-1,-3.0801854E-1,2.8503862E-1,3.2657376E-1,-3.3323556E-1,1.9172594E-1,-3.3190036E-1,1.6966432E-1,-3.48589E-1,-7.4030805E-1,-5.3008106E-2,-3.7920022E-1,-3.947206E-2,3.9128926E-2,-3.4330532E-1,9.024955E-2,-1.3960786E-1,-1.7867025E-2,-3.9871013E-1,-3.3493668E-1,-3.7384284E-1,-3.949454E-1,-3.5276806E-1,3.1893608E-1,-2.990594E-1,1.1510058E-1,-3.3512205E-1,2.0927367E-1,3.1469026E-1,1.7341039E-1,-2.5617698E-1,-6.8960604E-3,-2.2692363E-1,1.10265516E-1,3.2302538E-1,-6.8911093E-1,-9.8322555E-2,-8.8357097E-1,2.7998778E-1],"split_indices":[9,0,9,19,1,18,4,20,23,13,12,18,18,0,10,8,22,18,18,0,21,0,4,0,18,18,0,18,0,18,4,11,13,23,14,0,18,11,0,18,18,8,22,0,0,7,5,9,9,0,0,18,0,7,8,18,0,18,0,0,0,0,0,0,0,0,0,0,0,0,0,0,0,0,0,0,0,0,0,0,0,0,0,0,0,0,0,0,0,0,0,0,0,0,0,0,0,0,0,0,0,0,0],"split_type":[0,0,0,0,0,0,0,0,0,0,0,0,0,0,0,0,0,0,0,0,0,0,0,0,0,0,0,0,0,0,0,0,0,0,0,0,0,0,0,0,0,0,0,0,0,0,0,0,0,0,0,0,0,0,0,0,0,0,0,0,0,0,0,0,0,0,0,0,0,0,0,0,0,0,0,0,0,0,0,0,0,0,0,0,0,0,0,0,0,0,0,0,0,0,0,0,0,0,0,0,0,0,0],"sum_hessian":[3.1434372E5,8.870957E4,2.2563416E5,8.3000555E4,5.709016E3,7.863419E4,1.4699997E5,3.6751963E3,7.932536E4,4.818743E3,8.9027295E2,6.1914633E4,1.6719553E4,1.3279023E5,1.4209729E4,1.6378035E3,2.037393E3,7.757403E4,1.751327E3,2.7634976E3,2.0552454E3,8.77287E2,1.2985936E1,5.329404E4,8.620594E3,1.3932176E4,2.7873772E3,1.2562355E5,7.1666855E3,9.794944E3,4.4147847E3,1.5963358E3,4.146757E1,1.4134285E3,6.239645E2,7.7289945E4,2.840912E2,7.631995E2,9.881275E2,2.516431E3,2.4706667E2,7.7691223E2,1.278333E3,9.367709E0,3.6182268E0,3.8730457E4,1.4563583E4,6.227295E3,2.393299E3,1.2468731E4,1.4634437E3,1.246598E5,9.6375354E2,2.567337E3,4.5993486E3,9.477707E3,3.172367E2,3.7619631E3,6.528216E2,2.4143785E1,1.572192E3,2.864947E1,1.2818102E1,4.0676752E2,1.00666095E3,5.4584576E2,7.811869E1,4.4444744E1,2.3964644E2,3.7954053E2,3.83659E2,2.3798281E3,1.3660286E2,1.2119107E2,1.258756E2,6.8264197E2,9.427032E1,1.0267314E3,2.5160158E2,3.2912668E4,5.817787E3,1.1763776E4,2.7998066E3,6.0854224E3,1.418725E2,1.6945573E2,2.2238433E3,1.2466591E4,2.140969E0,1.188888E3,2.7455576E2,8.23218E4,4.2338E4,1.8170017E3,7.503351E2,1.8336743E3,2.7656746E3,7.02349E3,2.454217E3,2.6072834E3,1.1546797E3,2.8780422E0,6.4994354E2],"tree_param":{"num_deleted":"0","num_feature":"25","num_nodes":"103","size_leaf_vector":"1"}},{"base_weights":[3.1686418E-2,-9.670698E-1,3.8336733E-1,-1.0331036E0,-1.6102538E-1,5.8730178E-2,6.139696E-1,-4.9643055E-1,-1.0614963E0,2.0261288E-2,-8.696628E-1,-7.377981E-2,6.247635E-1,7.202511E-1,8.1833825E-2,-1.387503E-1,-1.032034E0,-1.0708089E0,-6.730064E-1,1.3689934E-1,-1.1806034E0,-9.9275315E-1,2.2604056E-1,5.5253863E-2,-1.1178243E0,9.3012595E-1,-3.2326156E-1,7.6225877E-1,-4.1875058E-1,3.187599E-1,-1.4844356E0,8.499302E-2,-7.00554E-1,-1.1057044E0,6.9888866E-1,-3.2160306E-1,-7.4117494E-1,-8.488321E-2,-9.9086845E-1,2.5525853E-1,-1.0173326E0,-3.433102E-1,-3.999781E-1,-9.468103E-2,-1.1593887E0,-2.1004853E0,5.2310115E-1,8.398189E-2,-1.4136045E0,-1.0987654E0,-1.3169315E0,1.0436578E0,9.252384E-2,6.5509903E-1,9.923703E-1,-1.4349648E-1,-7.13551E-1,-9.409372E-1,3.987533E-1,-4.512044E0,-1.1507878E0,-2.913002E-1,1.1160983E-1,-3.6406615E-1,3.530546E-1,-3.2728252E-1,-5.149375E-1,-4.2478314E-1,3.7268496E-1,3.1597647E-1,-3.2390362E-1,1.9959241E-1,-3.2387805E-1,-3.1338775E-1,9.7937167E-1,-4.1428474E-1,1.015835E-1,-4.9473003E-1,-6.183543E-2,1.03736006E-1,-5.833041E-1,-3.7891272E-1,-1.8843897E-1,-7.668667E-1,-3.4446797E-1,-6.262704E-1,2.1757473E-1,-3.9072495E-2,9.232284E-2,1.2828839E-1,-4.492479E-1,-3.2574633E-1,-3.39464E-1,-4.0890914E-1,-3.386691E-1,3.1340885E-1,-1.709417E-2,1.1303538E-1,-2.0471253E-1,2.2099404E-1,-4.085146E-1,3.0929345E-1,-3.22243E-1,-3.301386E-1,-1.2683484E-2,3.0234445E-2,-2.7800247E-1,5.539844E-2,-5.4480505E-1,1.3308038E-1,-3.2349953E-1,-1.7796795E0,-3.2103553E-1,2.3056446E-1,-4.674413E-1],"categories":[],"categories_nodes":[],"categories_segments":[],"categories_sizes":[],"default_left":[0,0,0,0,1,1,1,1,1,1,1,1,0,0,1,1,0,1,0,0,0,0,0,0,0,0,0,1,0,0,0,0,1,1,0,0,0,1,1,0,0,0,0,0,0,1,1,1,0,0,0,0,0,1,0,0,0,0,1,1,0,0,0,0,0,0,0,0,0,0,0,0,0,0,0,0,0,0,0,0,0,0,0,0,0,0,0,0,0,0,0,0,0,0,0,0,0,0,0,0,0,0,0,0,0,0,0,0,0,0,0,0,0,0,0],"id":7,"left_children":[1,3,5,7,9,11,13,15,17,19,21,23,25,27,29,31,33,35,37,39,41,43,45,47,49,51,-1,53,55,57,59,61,63,65,67,-1,69,71,73,75,77,-1,-1,79,81,83,85,87,89,91,93,95,97,99,101,103,105,107,109,111,113,-1,-1,-1,-1,-1,-1,-1,-1,-1,-1,-1,-1,-1,-1,-1,-1,-1,-1,-1,-1,-1,-1,-1,-1,-1,-1,-1,-1,-1,-1,-1,-1,-1,-1,-1,-1,-1,-1,-1,-1,-1,-1,-1,-1,-1,-1,-1,-1,-1,-1,-1,-1,-1,-1],"loss_changes":[9.24154E4,3.6460312E3,1.4567014E4,9.637344E2,6.673125E2,6.062306E3,6.4338906E3,6.089441E2,2.1620312E2,5.778042E2,1.4330414E2,8.82309E3,7.9698325E3,4.537625E3,7.0281387E3,2.4054094E2,1.6275928E2,2.1804688E1,2.6273486E2,5.1388525E2,3.7628174E-2,1.4143286E2,7.213021E1,2.4583376E3,2.5404297E1,1.235374E3,0E0,2.2539258E3,2.7296686E2,1.6575267E3,2.509087E3,4.131927E2,5.2487195E2,8.774292E0,5.911167E1,0E0,1.3103168E2,3.701524E2,2.0741394E2,4.651065E2,1.7770508E2,0E0,0E0,1.2325387E2,4.2654785E1,2.1222382E0,4.876804E1,2.7403735E3,1.7346411E2,1.0175781E0,3.4299316E0,1.3871094E1,3.4176297E2,1.0262559E4,2.3181758E3,1.681507E2,2.83028E2,9.6840326E2,1.0243896E3,1.200646E3,1.7531958E3,0E0,0E0,0E0,0E0,0E0,0E0,0E0,0E0,0E0,0E0,0E0,0E0,0E0,0E0,0E0,0E0,0E0,0E0,0E0,0E0,0E0,0E0,0E0,0E0,0E0,0E0,0E0,0E0,0E0,0E0,0E0,0E0,0E0,0E0,0E0,0E0,0E0,0E0,0E0,0E0,0E0,0E0,0E0,0E0,0E0,0E0,0E0,0E0,0E0,0E0,0E0,0E0,0E0,0E0],"parents":[2147483647,0,0,1,1,2,2,3,3,4,4,5,5,6,6,7,7,8,8,9,9,10,10,11,11,12,12,13,13,14,14,15,15,16,16,17,17,18,18,19,19,20,20,21,21,22,22,23,23,24,24,25,25,27,27,28,28,29,29,30,30,31,31,32,32,33,33,34,34,36,36,37,37,38,38,39,39,40,40,43,43,44,44,45,45,46,46,47,47,48,48,49,49,50,50,51,51,52,52,53,53,54,54,55,55,56,56,57,57,58,58,59,59,60,60],"right_children":[2,4,6,8,10,12,14,16,18,20,22,24,26,28,30,32,34,36,38,40,42,44,46,48,50,52,-1,54,56,58,60,62,64,66,68,-1,70,72,74,76,78,-1,-1,80,82,84,86,88,90,92,94,96,98,100,102,104,106,108,110,112,114,-1,-1,-1,-1,-1,-1,-1,-1,-1,-1,-1,-1,-1,-1,-1,-1,-1,-1,-1,-1,-1,-1,-1,-1,-1,-1,-1,-1,-1,-1,-1,-1,-1,-1,-1,-1,-1,-1,-1,-1,-1,-1,-1,-1,-1,-1,-1,-1,-1,-1,-1,-1,-1,-1],"split_conditions":[4.296029E-1,2.5815778E0,8.627798E1,-3.5E0,1.7670348E-1,1.4699583E2,9.1106296E-1,0E0,9.066667E-1,0E0,2.3770583E2,-5.8029044E-1,1.4720749E2,4.400442E1,7.638195E1,4.197725E-1,2.2E-1,1.4699583E2,0E0,1.0529891E2,3.6363637E-1,-5.634315E-2,2.6526717E-2,1.570101E2,6.407581E1,1.4707315E2,-3.2326156E-1,1.4699583E2,1.3555555E1,-2.7407408E-1,2.0410013E0,6.634334E-3,1.656318E0,8.015268E-3,8.280425E-3,-3.2160306E-1,1.4707315E2,1.4720749E2,1.1367433E3,5.8666664E-1,2.968187E0,-3.433102E-1,-3.999781E-1,1.6702766E1,2.229575E0,1.4688905E2,1.9102825E-2,1.5311004E-1,-9.211196E-2,9.449252E-1,3.370947E1,1.8966046E2,7.757017E0,-5.802209E-1,1.4720749E2,0E0,1.413E2,1E0,1.4720749E2,-3.2817703E-1,1E0,-2.913002E-1,1.1160983E-1,-3.6406615E-1,3.530546E-1,-3.2728252E-1,-5.149375E-1,-4.2478314E-1,3.7268496E-1,3.1597647E-1,-3.2390362E-1,1.9959241E-1,-3.2387805E-1,-3.1338775E-1,9.7937167E-1,-4.1428474E-1,1.015835E-1,-4.9473003E-1,-6.183543E-2,1.03736006E-1,-5.833041E-1,-3.7891272E-1,-1.8843897E-1,-7.668667E-1,-3.4446797E-1,-6.262704E-1,2.1757473E-1,-3.9072495E-2,9.232284E-2,1.2828839E-1,-4.492479E-1,-3.2574633E-1,-3.39464E-1,-4.0890914E-1,-3.386691E-1,3.1340885E-1,-1.709417E-2,1.1303538E-1,-2.0471253E-1,2.2099404E-1,-4.085146E-1,3.0929345E-1,-3.22243E-1,-3.301386E-1,-1.2683484E-2,3.0234445E-2,-2.7800247E-1,5.539844E-2,-5.4480505E-1,1.3308038E-1,-3.2349953E-1,-1.7796795E0,-3.2103553E-1,2.3056446E-1,-4.674413E-1],"split_indices":[9,0,9,19,5,18,5,11,23,11,4,18,18,0,1,1,8,18,11,0,2,12,17,0,9,18,0,18,3,3,5,21,14,17,15,0,18,18,5,23,1,0,0,0,16,18,1,2,12,18,0,0,0,18,18,2,8,10,18,18,10,0,0,0,0,0,0,0,0,0,0,0,0,0,0,0,0,0,0,0,0,0,0,0,0,0,0,0,0,0,0,0,0,0,0,0,0,0,0,0,0,0,0,0,0,0,0,0,0,0,0,0,0,0,0],"split_type":[0,0,0,0,0,0,0,0,0,0,0,0,0,0,0,0,0,0,0,0,0,0,0,0,0,0,0,0,0,0,0,0,0,0,0,0,0,0,0,0,0,0,0,0,0,0,0,0,0,0,0,0,0,0,0,0,0,0,0,0,0,0,0,0,0,0,0,0,0,0,0,0,0,0,0,0,0,0,0,0,0,0,0,0,0,0,0,0,0,0,0,0,0,0,0,0,0,0,0,0,0,0,0,0,0,0,0,0,0,0,0,0,0,0,0],"sum_hessian":[2.6311053E5,6.8518664E4,1.9459186E5,6.332951E4,5.1891577E3,8.0819414E4,1.13772445E5,3.183512E3,6.0146E4,4.131174E3,1.0579835E3,6.5487254E4,1.5332162E4,9.483076E4,1.8941684E4,1.9096958E3,1.2738162E3,5.873596E4,1.4100385E3,3.7660498E3,3.6512418E2,9.5179034E2,1.0619313E2,5.828325E4,7.204005E3,1.3000564E4,2.331598E3,9.1458375E4,3.3723882E3,1.6453336E4,2.4883486E3,1.3647485E3,5.449472E2,1.2222576E3,5.155866E1,5.8520277E4,2.1568321E2,4.955905E2,9.14448E2,3.4164114E3,3.4963837E2,2.9931635E2,6.580785E1,1.4971439E2,8.02076E2,1.1718994E1,9.447414E1,5.7165746E4,1.1175066E3,6.578333E3,6.2567175E2,1.1447914E4,1.55265E3,6.2402082E4,2.905629E4,1.7454143E3,1.6269739E3,9.818371E2,1.5471499E4,2.467625E2,2.2415862E3,2.9108514E2,1.0736635E3,4.283318E2,1.1661543E2,1.1946903E3,2.7567276E1,1.0238663E1,4.1319996E1,3.385458E1,1.8182863E2,2.8206116E2,2.1352936E2,9.032259E2,1.1222095E1,1.6514015E2,3.2512712E3,1.96005E2,1.5363336E2,1.2057008E2,2.9144302E1,6.698717E2,1.3220425E2,7.3576326E0,4.361362E0,6.505132E0,8.796901E1,2.9203455E4,2.796229E4,4.8280552E1,1.0692261E3,4.7335825E3,1.8447504E3,4.9906528E2,1.26606476E2,1.1437852E4,1.0062821E1,1.1367001E3,4.1595004E2,5.997736E4,2.4247231E3,2.852378E4,5.325098E2,1.6619771E2,1.5792166E3,3.3670236E2,1.2902715E3,4.290473E2,5.5278986E2,1.5016114E4,4.553847E2,1.7451927E2,7.2243225E1,3.9210687E2,1.8494792E3],"tree_param":{"num_deleted":"0","num_feature":"25","num_nodes":"115","size_leaf_vector":"1"}},{"base_weights":[2.6179686E-2,-9.267374E-1,3.24611E-1,-1.005977E0,-1.311869E-1,1.8026419E-1,8.1359017E-1,-4.3482018E-1,-1.0401762E0,-2.2985607E-3,-9.7341853E-1,2.6904878E-1,-1.1422154E0,9.799955E-1,-3.17222E-1,-1.0120081E0,-1.2284786E-1,-1.0510094E0,-6.1935073E-1,-2.0335236E-1,5.3698987E-1,-1.6430771E-2,-1.1947973E0,5.269433E-2,4.941373E-1,-3.2142776E-1,-1.2514732E0,1.0319581E0,4.3794197E-1,-1.0622315E0,4.3318367E-1,-2.3147956E-1,8.8689244E-1,-3.1566006E-1,-7.2395724E-1,-1.0068202E0,-1.1753837E-1,1.1492939E-2,-1.8987583E0,3.409541E-1,-9.943576E-1,-1.7751204E0,7.6052487E-1,-1.7113196E0,-1.1166542E0,-8.5294324E-1,9.129243E-2,-1.2897252E-1,6.61181E-1,-1.269987E0,-3.309445E-1,1.0326846E0,-4.099341E-1,1.1423359E-1,9.677463E-1,-4.198541E-1,-3.1628588E-1,-3.4106386E-1,3.0869502E-1,1.4426097E-2,-2.0274338E-1,-6.2367034E-1,3.3982068E-1,3.0746564E-1,-3.1714302E-1,-3.187082E-1,1.4364289E-1,1.3273652E-1,-3.170424E-1,-4.556165E-1,3.2670375E-2,-3.4258506E-1,-7.184708E-1,-3.51738E-1,-9.176793E-2,-5.8884925E-1,-3.0854216E-1,-5.0684536E-1,2.997155E-1,-5.839303E-1,-4.1930404E-1,-3.4123218E-1,-2.032018E-1,-5.290657E-1,-8.810985E-2,6.3189276E-2,-7.554699E-2,9.9565715E-2,-1.9289173E-1,-1.196425E0,2.0283599E-1,-3.73753E-1,-4.0540004E-1,3.1005707E-1,1.9374616E-1,1.5489438E-1,-1.0238232E-1,2.9179224E-1,-5.8673716E-1],"categories":[],"categories_nodes":[],"categories_segments":[],"categories_sizes":[],"default_left":[0,0,1,0,1,1,0,0,1,1,0,0,0,0,0,0,1,1,0,1,0,0,0,0,0,0,0,0,1,0,1,0,0,0,0,1,1,0,0,0,1,1,0,1,1,0,0,0,0,1,0,0,0,1,0,0,0,0,0,0,0,0,0,0,0,0,0,0,0,0,0,0,0,0,0,0,0,0,0,0,0,0,0,0,0,0,0,0,0,0,0,0,0,0,0,0,0,0,0],"id":8,"left_children":[1,3,5,7,9,11,13,15,17,19,21,23,25,27,-1,29,31,33,35,37,39,41,43,45,47,-1,49,51,53,55,57,59,61,-1,63,65,67,69,71,-1,73,75,77,79,81,83,85,87,89,91,-1,93,-1,95,97,-1,-1,-1,-1,-1,-1,-1,-1,-1,-1,-1,-1,-1,-1,-1,-1,-1,-1,-1,-1,-1,-1,-1,-1,-1,-1,-1,-1,-1,-1,-1,-1,-1,-1,-1,-1,-1,-1,-1,-1,-1,-1,-1,-1],"loss_changes":[6.3014574E4,3.3303984E3,1.1909451E4,9.3753125E2,5.189428E2,1.5296681E4,1.1973662E4,4.882071E2,2.05375E2,4.5003653E2,1.3347668E2,5.945117E3,6.1529297E1,9.9359766E2,0E0,6.9612305E1,1.9298537E2,1.57890625E1,2.2071469E2,1.1038485E3,1.0345778E3,1.6464845E2,1.8512451E1,2.175522E3,6.2283877E3,0E0,6.9379883E0,5.5878906E1,5.29215E2,5.0427246E-1,2.932662E1,1.9844847E2,1.2366275E2,0E0,9.487789E1,5.3461548E1,2.621748E2,3.9916638E2,1.2513208E2,0E0,3.764319E1,2.800331E0,4.786273E1,2.2130432E0,2.6429443E0,1.2938578E3,2.4448943E3,2.9964124E3,3.2746602E3,3.53125E0,0E0,9.113281E0,0E0,3.5170013E2,1.5973999E1,0E0,0E0,0E0,0E0,0E0,0E0,0E0,0E0,0E0,0E0,0E0,0E0,0E0,0E0,0E0,0E0,0E0,0E0,0E0,0E0,0E0,0E0,0E0,0E0,0E0,0E0,0E0,0E0,0E0,0E0,0E0,0E0,0E0,0E0,0E0,0E0,0E0,0E0,0E0,0E0,0E0,0E0,0E0,0E0],"parents":[2147483647,0,0,1,1,2,2,3,3,4,4,5,5,6,6,7,7,8,8,9,9,10,10,11,11,12,12,13,13,15,15,16,16,17,17,18,18,19,19,20,20,21,21,22,22,23,23,24,24,26,26,27,27,28,28,29,29,30,30,31,31,32,32,34,34,35,35,36,36,37,37,38,38,40,40,41,41,42,42,43,43,44,44,45,45,46,46,47,47,48,48,49,49,51,51,53,53,54,54],"right_children":[2,4,6,8,10,12,14,16,18,20,22,24,26,28,-1,30,32,34,36,38,40,42,44,46,48,-1,50,52,54,56,58,60,62,-1,64,66,68,70,72,-1,74,76,78,80,82,84,86,88,90,92,-1,94,-1,96,98,-1,-1,-1,-1,-1,-1,-1,-1,-1,-1,-1,-1,-1,-1,-1,-1,-1,-1,-1,-1,-1,-1,-1,-1,-1,-1,-1,-1,-1,-1,-1,-1,-1,-1,-1,-1,-1,-1,-1,-1,-1,-1,-1,-1],"split_conditions":[4.296029E-1,2.5815778E0,1.4699583E2,-3.5E0,2.0064037E-1,-5.8029044E-1,1.4720749E2,-8.591134E-2,9.066667E-1,1.4699583E2,7.373249E-1,1.1068231E2,6.407581E1,1.4707315E2,-3.17222E-1,1.1E-1,1.5734286E1,1.4699583E2,-1.4839153E-2,-5.802209E-1,1.4707315E2,1.714026E0,6.2720885E0,1.3576605E-2,2.081324E0,-3.2142776E-1,3.370947E1,2.3971066E2,5.8117514E0,0E0,2.9503792E-3,1.6354962E-1,5.875679E-4,-3.1566006E-1,1.4707315E2,1.3266854E-2,1.4720749E2,-2.7407408E0,6.4E-1,3.409541E-1,9.58242E-2,1.4722247E2,6.985646E-1,2.0508447E-1,2.0703703E1,1E0,1.7620333E1,3.0856163E1,1.26E1,9.1106296E-1,-3.309445E-1,1.353061E2,-4.099341E-1,4.2105263E-1,5.2940655E1,-4.198541E-1,-3.1628588E-1,-3.4106386E-1,3.0869502E-1,1.4426097E-2,-2.0274338E-1,-6.2367034E-1,3.3982068E-1,3.0746564E-1,-3.1714302E-1,-3.187082E-1,1.4364289E-1,1.3273652E-1,-3.170424E-1,-4.556165E-1,3.2670375E-2,-3.4258506E-1,-7.184708E-1,-3.51738E-1,-9.176793E-2,-5.8884925E-1,-3.0854216E-1,-5.0684536E-1,2.997155E-1,-5.839303E-1,-4.1930404E-1,-3.4123218E-1,-2.032018E-1,-5.290657E-1,-8.810985E-2,6.3189276E-2,-7.554699E-2,9.9565715E-2,-1.9289173E-1,-1.196425E0,2.0283599E-1,-3.73753E-1,-4.0540004E-1,3.1005707E-1,1.9374616E-1,1.5489438E-1,-1.0238232E-1,2.9179224E-1,-5.8673716E-1],"split_indices":[9,0,18,19,22,18,18,20,23,18,1,9,9,18,0,8,5,18,15,18,18,21,1,16,0,0,0,0,1,11,1,17,1,0,18,1,18,3,23,0,22,18,2,18,3,10,0,1,8,5,0,0,0,7,0,0,0,0,0,0,0,0,0,0,0,0,0,0,0,0,0,0,0,0,0,0,0,0,0,0,0,0,0,0,0,0,0,0,0,0,0,0,0,0,0,0,0,0,0],"split_type":[0,0,0,0,0,0,0,0,0,0,0,0,0,0,0,0,0,0,0,0,0,0,0,0,0,0,0,0,0,0,0,0,0,0,0,0,0,0,0,0,0,0,0,0,0,0,0,0,0,0,0,0,0,0,0,0,0,0,0,0,0,0,0,0,0,0,0,0,0,0,0,0,0,0,0,0,0,0,0,0,0,0,0,0,0,0,0,0,0,0,0,0,0,0,0,0,0,0,0],"sum_hessian":[2.2158727E5,5.284522E4,1.6874205E5,4.805752E4,4.787701E3,1.3028384E5,3.8458203E4,2.7162998E3,4.534122E4,4.1530947E3,6.346064E2,1.2208808E5,8.19577E3,3.531751E4,3.1406904E3,9.52146E2,1.7641539E3,4.4201445E4,1.139774E3,3.0263247E3,1.1267701E3,1.1990186E2,5.1470447E2,6.2253625E4,5.9834453E4,4.9778696E3,3.2179004E3,3.22267E4,3.0908113E3,9.207032E2,3.144279E1,1.5935104E3,1.7064362E2,4.403866E4,1.627831E2,6.422629E2,4.9751117E2,2.6855364E3,3.407885E2,8.101272E2,3.16643E2,3.7055035E1,8.2846825E1,6.629039E1,4.484141E2,2.5439324E3,5.970969E4,1.2648387E4,4.7186066E4,2.85602E3,3.6188034E2,3.2217275E4,9.424762E0,1.9195088E3,1.1713024E3,1.8872437E1,9.0183075E2,8.280119E0,2.316267E1,9.76998E2,6.165123E2,1.281327E1,1.5783035E2,2.5665865E1,1.3711723E2,6.196362E2,2.262666E1,3.1115097E2,1.8636021E2,1.602297E2,2.5253066E3,1.3558401E2,2.0520448E2,2.5064131E2,6.6001686E1,2.8754555E1,8.300482E0,7.052604E0,7.579422E1,3.643031E1,2.9860083E1,4.2641696E2,2.199715E1,9.6736096E2,1.5765715E3,4.4303055E4,1.5406636E4,6.668119E3,5.980268E3,1.5096033E2,4.7035105E4,2.209942E3,6.460782E2,3.2145498E4,7.177727E1,1.020479E3,8.990297E2,1.1696179E3,1.6845074E0],"tree_param":{"num_deleted":"0","num_feature":"25","num_nodes":"99","size_leaf_vector":"1"}},{"base_weights":[2.1162972E-2,-8.872066E-1,2.6977646E-1,-9.797299E-1,-1.0527887E-1,1.4235128E-1,7.930785E-1,-3.5785964E-1,-1.0239788E0,3.2700255E-4,-1.0080516E0,2.108774E-1,-1.1006846E0,9.542329E-1,-3.1250927E-1,-7.3915094E-2,-9.686675E-1,-1.0368718E0,-5.6501174E-1,8.570262E-2,-3.384443E-1,-1.0507739E0,8.2899135E-1,-5.79726E-2,3.4470806E-1,-3.1561264E-1,-1.1727248E0,1.0224171E0,3.612501E-1,1.4474485E-2,-1.184257E0,-1.070318E0,5.927361E-1,-3.1141812E-1,-7.099135E-1,-1.3953932E-1,-1.0393319E0,3.2155988E-1,-3.6347973E-1,-1.3943975E-1,-3.204819E-1,3.7350234E-1,-1.8758981E-1,-2.6633864E-2,-1.5253313E0,4.499038E-1,-4.0957127E-2,-3.5536972E-1,-3.219063E-1,1.0231693E0,-3.6055326E-1,8.7217584E-2,9.361069E-1,-4.197088E-1,2.7977604E-2,-3.3277434E-1,-5.941543E-1,-3.116637E-1,-3.6911118E-1,3.0840155E-1,-5.1710075E-1,3.000031E-1,-3.120032E-1,9.474887E-2,-3.117806E-1,-3.1347644E-1,-0E0,-1.1257233E-1,1.7807654E-1,-3.8831197E-2,-3.805253E-1,2.3883697E-1,-2.9732046E-1,-6.9842555E-2,6.475129E-2,1.6061226E-1,-5.191271E-1,1.6597676E-1,-3.8445476E-2,3.4219068E-2,-3.579724E-1,3.0729577E-1,1.6629502E-1,3.145679E-2,-3.1418297E0,2.8241E-1,-4.0056148E-1],"categories":[],"categories_nodes":[],"categories_segments":[],"categories_sizes":[],"default_left":[0,0,1,0,1,1,0,1,1,1,1,0,0,0,0,1,0,1,1,0,0,0,0,1,1,0,0,0,1,0,1,0,0,0,0,1,1,1,1,0,0,0,0,1,0,0,1,0,0,0,0,0,0,0,0,0,0,0,0,0,0,0,0,0,0,0,0,0,0,0,0,0,0,0,0,0,0,0,0,0,0,0,0,0,0,0,0],"id":9,"left_children":[1,3,5,7,9,11,13,15,17,19,21,23,25,27,-1,29,31,33,35,37,-1,39,41,43,45,-1,47,49,51,53,55,57,59,-1,61,63,65,67,69,71,-1,-1,-1,73,75,77,79,-1,-1,81,-1,83,85,-1,-1,-1,-1,-1,-1,-1,-1,-1,-1,-1,-1,-1,-1,-1,-1,-1,-1,-1,-1,-1,-1,-1,-1,-1,-1,-1,-1,-1,-1,-1,-1,-1,-1],"loss_changes":[4.287387E4,2.9504707E3,9.93855E3,1.0026328E3,4.1240552E2,1.020976E4,8.629934E3,4.196263E2,2.0023047E2,3.7147153E2,3.5724762E1,4.087832E3,2.016455E1,1.083707E3,0E0,1.6344617E2,1.2234747E2,1.146875E1,1.8717377E2,3.8063943E2,0E0,6.099701E0,6.4662437E0,1.7349305E3,3.0776445E3,0E0,1.1660156E0,4.0125E1,4.352494E2,1.696835E2,4.8604584E0,1.8173828E0,4.6315834E1,0E0,6.91214E1,2.0226399E2,1.838562E0,4.469875E2,2.6064996E2,7.4929447E0,0E0,0E0,0E0,1.8480035E3,3.343933E2,3.5608828E3,2.904279E3,0E0,0E0,1.1703125E1,0E0,3.410401E2,1.0348999E1,0E0,0E0,0E0,0E0,0E0,0E0,0E0,0E0,0E0,0E0,0E0,0E0,0E0,0E0,0E0,0E0,0E0,0E0,0E0,0E0,0E0,0E0,0E0,0E0,0E0,0E0,0E0,0E0,0E0,0E0,0E0,0E0,0E0,0E0],"parents":[2147483647,0,0,1,1,2,2,3,3,4,4,5,5,6,6,7,7,8,8,9,9,10,10,11,11,12,12,13,13,15,15,16,16,17,17,18,18,19,19,21,21,22,22,23,23,24,24,26,26,27,27,28,28,29,29,30,30,31,31,32,32,34,34,35,35,36,36,37,37,38,38,39,39,43,43,44,44,45,45,46,46,49,49,51,51,52,52],"right_children":[2,4,6,8,10,12,14,16,18,20,22,24,26,28,-1,30,32,34,36,38,-1,40,42,44,46,-1,48,50,52,54,56,58,60,-1,62,64,66,68,70,72,-1,-1,-1,74,76,78,80,-1,-1,82,-1,84,86,-1,-1,-1,-1,-1,-1,-1,-1,-1,-1,-1,-1,-1,-1,-1,-1,-1,-1,-1,-1,-1,-1,-1,-1,-1,-1,-1,-1,-1,-1,-1,-1,-1,-1],"split_conditions":[4.296029E-1,2.5815778E0,1.4699583E2,-3.5E0,7.279819E0,-5.8029044E-1,1.4720749E2,0E0,9.066667E-1,0E0,3.6691203E0,3.259567E1,6.407581E1,1.4707315E2,-3.1250927E-1,1.1584738E1,2.2E-1,1.4699583E2,0E0,2.6487183E1,-3.384443E-1,-5.7175573E-2,-3.242194E-2,4.563078E0,7.2060543E-1,-3.1561264E-1,3.370947E1,2.3971066E2,5.8117514E0,-1.5308817E-1,1.656318E0,-4.8556667E-2,6.631579E-1,-3.1141812E-1,1.4707315E2,1.4720749E2,1.1111561E3,2.791694E-2,-8.579677E-2,7.7929254E0,-3.204819E-1,3.7350234E-1,-1.8758981E-1,2.1052632E-1,-2.3664122E-2,2.4616129E1,7.638195E1,-3.5536972E-1,-3.219063E-1,1.353061E2,-3.6055326E-1,6.901E2,5.2940655E1,-4.197088E-1,2.7977604E-2,-3.3277434E-1,-5.941543E-1,-3.116637E-1,-3.6911118E-1,3.0840155E-1,-5.1710075E-1,3.000031E-1,-3.120032E-1,9.474887E-2,-3.117806E-1,-3.1347644E-1,-0E0,-1.1257233E-1,1.7807654E-1,-3.8831197E-2,-3.805253E-1,2.3883697E-1,-2.9732046E-1,-6.9842555E-2,6.475129E-2,1.6061226E-1,-5.191271E-1,1.6597676E-1,-3.8445476E-2,3.4219068E-2,-3.579724E-1,3.0729577E-1,1.6629502E-1,3.145679E-2,-3.1418297E0,2.8241E-1,-4.0056148E-1],"split_indices":[9,0,18,19,1,18,18,11,23,11,12,9,9,18,0,1,8,18,11,0,0,17,4,1,4,0,0,0,1,4,14,15,7,0,18,18,4,1,4,1,0,0,0,2,17,0,1,0,0,0,0,8,0,0,0,0,0,0,0,0,0,0,0,0,0,0,0,0,0,0,0,0,0,0,0,0,0,0,0,0,0,0,0,0,0,0,0],"split_type":[0,0,0,0,0,0,0,0,0,0,0,0,0,0,0,0,0,0,0,0,0,0,0,0,0,0,0,0,0,0,0,0,0,0,0,0,0,0,0,0,0,0,0,0,0,0,0,0,0,0,0,0,0,0,0,0,0,0,0,0,0,0,0,0,0,0,0,0,0,0,0,0,0,0,0,0,0,0,0,0,0,0,0,0,0,0,0],"sum_hessian":[1.8984992E5,4.0794418E4,1.490555E5,3.6477156E4,4.31726E3,1.1986874E5,2.9186766E4,2.4243027E3,3.4052855E4,3.8643267E3,4.5293304E2,1.13606484E5,6.2622573E3,2.6830584E4,2.3561816E3,1.6558583E3,7.684445E2,3.3120707E4,9.321475E2,3.59319E3,2.7113666E2,4.4306464E2,9.868414E0,3.775505E4,7.585143E4,3.744809E3,2.5174485E3,2.4062416E4,2.768168E3,1.5330947E3,1.2276361E2,7.219562E2,4.64884E1,3.2998305E4,1.2240322E2,4.9226498E2,4.3988254E2,2.3572324E3,1.2359575E3,9.208625E0,4.33856E2,8.101099E0,1.7673151E0,3.69661E4,7.889488E2,5.959744E4,1.6253989E4,2.2430408E3,2.7440753E2,2.4054639E4,7.7762213E0,1.8755096E3,8.926582E2,8.0402466E1,1.4526923E3,1.1311282E2,9.650786E0,6.076036E2,1.1435256E2,3.942544E1,7.062957E0,1.941399E1,1.0298923E2,3.2625327E2,1.6601169E2,4.3687305E2,3.009502E0,6.610394E2,1.6961929E3,9.8269025E2,2.5326732E2,3.9404433E0,5.2681813E0,1.998017E4,1.6985932E4,7.105991E1,7.178889E2,5.055921E4,9.038231E3,1.4325974E4,1.9280159E3,2.3994092E4,6.0548622E1,1.8724579E3,3.0518177E0,8.9094727E2,1.7109535E0],"tree_param":{"num_deleted":"0","num_feature":"25","num_nodes":"87","size_leaf_vector":"1"}},{"base_weights":[1.6192958E-2,-8.4343493E-1,2.2081591E-1,-9.540133E-1,-8.251887E-2,1.10715695E-1,7.7107006E-1,-2.938895E-1,-1.0108573E0,6.891202E-3,-9.5949185E-1,1.6345106E-1,-1.0723295E0,9.2611295E-1,-3.0909842E-1,-9.316472E-1,-3.9141875E-2,-1.0266677E0,-5.063847E-1,-6.8949974E-1,1.2222331E-1,1.1080671E-1,-1.0960066E0,3.2567758E-2,3.9661413E-1,-3.1140634E-1,-3.3648992E-1,1.0150965E0,2.9723138E-1,7.122412E-1,-1.0830072E0,2.1225137E-1,-4.1012043E-1,-3.0835864E-1,-6.9741976E-1,-1.2182111E-1,-1.0247499E0,-1.0609348E0,1.154331E-1,-6.3312894E-1,2.4214412E-1,6.145536E-1,-6.009948E-1,-1.1435517E0,7.3746616E-1,-5.026396E-1,7.565834E-2,-1.7248267E-1,5.928714E-1,1.0164664E0,-3.5885936E-1,7.4586585E-2,9.006531E-1,-4.382803E-1,4.902194E-1,2.011434E-1,-3.379885E-1,-3.547092E-1,1.0174968E-1,-2.1761577E-1,2.8579527E-1,2.928139E-1,-3.0785963E-1,6.723727E-2,-3.077714E-1,-3.0988678E-1,-0E0,-2.2124128E-1,-4.6575966E-1,1.1706426E-1,-5.697584E-1,-5.170447E-1,-4.339436E-2,1.1432173E-1,-1.6793002E-1,2.783255E-1,-6.4143145E-1,-4.1730353E-1,-3.2282725E-1,3.3453447E-1,-1.4486694E-1,-8.960637E-2,-3.0366993E-1,9.053688E-2,-9.631184E-3,1.14167355E-1,-1.6785939E-1,-1.503951E0,1.860972E-1,3.052327E-1,1.7194979E-1,4.694692E-2,-1.5637261E0,-4.5474157E-2,1.8644568E-1,2.2355865E-1,2.9868406E-1],"categories":[],"categories_nodes":[],"categories_segments":[],"categories_sizes":[],"default_left":[0,0,1,0,1,1,0,0,1,0,0,0,0,0,0,0,0,1,1,1,0,0,1,0,0,0,0,0,1,1,0,0,1,0,0,1,1,0,0,0,1,1,0,0,0,1,0,0,0,0,1,1,0,0,0,0,0,0,0,0,0,0,0,0,0,0,0,0,0,0,0,0,0,0,0,0,0,0,0,0,0,0,0,0,0,0,0,0,0,0,0,0,0,0,0,0,0],"id":10,"left_children":[1,3,5,7,9,11,13,15,17,19,21,23,25,27,-1,29,31,33,35,37,39,41,43,45,47,-1,-1,49,51,53,55,57,59,-1,61,63,65,67,69,71,73,75,-1,77,79,81,83,85,87,89,91,93,95,-1,-1,-1,-1,-1,-1,-1,-1,-1,-1,-1,-1,-1,-1,-1,-1,-1,-1,-1,-1,-1,-1,-1,-1,-1,-1,-1,-1,-1,-1,-1,-1,-1,-1,-1,-1,-1,-1,-1,-1,-1,-1,-1,-1],"loss_changes":[2.9043602E4,2.670332E3,8.0793345E3,1.0390215E3,3.166771E2,6.9328335E3,6.2101963E3,3.5643274E2,2.0231055E2,2.9313498E2,5.537433E1,3.246487E3,6.293457E0,1.1446719E3,0E0,1.5622284E2,1.4676434E2,8.349609E0,1.5397307E2,1.5574374E2,2.8384656E2,4.319004E1,2.9265717E1,1.5712407E3,4.272325E3,0E0,0E0,3.4279297E1,3.4032825E2,1.0508945E2,4.4290527E1,1.6494705E2,2.7317557E2,0E0,5.0573605E1,1.4043288E2,2.0682678E0,5.4679565E1,8.9026115E1,2.2693872E2,3.0156537E2,2.8256947E1,0E0,3.435608E0,4.1771603E0,5.265408E2,1.5370957E3,2.0993623E3,4.373704E3,6.4804688E0,4.7270626E1,2.2989995E2,8.695068E0,0E0,0E0,0E0,0E0,0E0,0E0,0E0,0E0,0E0,0E0,0E0,0E0,0E0,0E0,0E0,0E0,0E0,0E0,0E0,0E0,0E0,0E0,0E0,0E0,0E0,0E0,0E0,0E0,0E0,0E0,0E0,0E0,0E0,0E0,0E0,0E0,0E0,0E0,0E0,0E0,0E0,0E0,0E0,0E0],"parents":[2147483647,0,0,1,1,2,2,3,3,4,4,5,5,6,6,7,7,8,8,9,9,10,10,11,11,12,12,13,13,15,15,16,16,17,17,18,18,19,19,20,20,21,21,22,22,23,23,24,24,27,27,28,28,29,29,30,30,31,31,32,32,34,34,35,35,36,36,37,37,38,38,39,39,40,40,41,41,43,43,44,44,45,45,46,46,47,47,48,48,49,49,50,50,51,51,52,52],"right_children":[2,4,6,8,10,12,14,16,18,20,22,24,26,28,-1,30,32,34,36,38,40,42,44,46,48,-1,-1,50,52,54,56,58,60,-1,62,64,66,68,70,72,74,76,-1,78,80,82,84,86,88,90,92,94,96,-1,-1,-1,-1,-1,-1,-1,-1,-1,-1,-1,-1,-1,-1,-1,-1,-1,-1,-1,-1,-1,-1,-1,-1,-1,-1,-1,-1,-1,-1,-1,-1,-1,-1,-1,-1,-1,-1,-1,-1,-1,-1,-1,-1],"split_conditions":[4.296029E-1,2.5815778E0,1.4699583E2,-3.5E0,2.8948474E-1,-5.8029044E-1,1.4720749E2,-1.8791425E-3,9.066667E-1,4.6889952E-1,2.611202E-1,1.8530325E2,6.407581E1,1.4707315E2,-3.0909842E-1,-4.105263E-1,4.197725E-1,1.4699583E2,0E0,4.6946567E-2,-1.4671458E-1,1.0526316E-2,3.6691203E0,-1.5262982E-1,2.5815778E0,-3.1140634E-1,-3.3648992E-1,1.8966046E2,5.8117514E0,-1.0621603E-1,-2.045502E-2,6.634334E-3,1.656318E0,-3.0835864E-1,1.4707315E2,1.4720749E2,4.675433E-2,1.0153999E1,4.834157E1,2.848016E-2,1.7663465E-1,9.100397E-2,-6.009948E-1,7.279819E0,1.4706746E2,2E-1,2.5263157E-1,1E0,2.04E1,1.353061E2,-4.121946E-2,1.8350544E0,3.17E2,-4.382803E-1,4.902194E-1,2.011434E-1,-3.379885E-1,-3.547092E-1,1.0174968E-1,-2.1761577E-1,2.8579527E-1,2.928139E-1,-3.0785963E-1,6.723727E-2,-3.077714E-1,-3.0988678E-1,-0E0,-2.2124128E-1,-4.6575966E-1,1.1706426E-1,-5.697584E-1,-5.170447E-1,-4.339436E-2,1.1432173E-1,-1.6793002E-1,2.783255E-1,-6.4143145E-1,-4.1730353E-1,-3.2282725E-1,3.3453447E-1,-1.4486694E-1,-8.960637E-2,-3.0366993E-1,9.053688E-2,-9.631184E-3,1.14167355E-1,-1.6785939E-1,-1.503951E0,1.860972E-1,3.052327E-1,1.7194979E-1,4.694692E-2,-1.5637261E0,-4.5474157E-2,1.8644568E-1,2.2355865E-1,2.9868406E-1],"split_indices":[9,0,18,19,17,18,18,1,23,2,1,9,9,18,0,2,1,18,11,17,4,7,12,4,0,0,0,0,1,5,13,21,14,0,18,18,13,0,0,22,4,13,0,1,18,7,7,10,8,0,4,14,9,0,0,0,0,0,0,0,0,0,0,0,0,0,0,0,0,0,0,0,0,0,0,0,0,0,0,0,0,0,0,0,0,0,0,0,0,0,0,0,0,0,0,0,0],"split_type":[0,0,0,0,0,0,0,0,0,0,0,0,0,0,0,0,0,0,0,0,0,0,0,0,0,0,0,0,0,0,0,0,0,0,0,0,0,0,0,0,0,0,0,0,0,0,0,0,0,0,0,0,0,0,0,0,0,0,0,0,0,0,0,0,0,0,0,0,0,0,0,0,0,0,0,0,0,0,0,0,0,0,0,0,0,0,0,0,0,0,0,0,0,0,0,0,0],"sum_hessian":[1.6511748E5,3.17463E4,1.3337119E5,2.7717297E4,4.0290032E3,1.11135555E5,2.2235633E4,2.198654E3,2.5518645E4,3.6554106E3,3.735925E2,1.0639363E5,4.7419214E3,2.0473924E4,1.7617078E3,6.266651E2,1.571989E3,2.4741645E4,7.7699896E2,5.183865E2,3.1370242E3,4.159791E1,3.319946E2,6.81448E4,3.8248836E4,2.8057432E3,1.9361781E3,1.7934947E4,2.5389778E3,5.2389442E1,5.7427563E2,9.357336E2,6.362554E2,2.4649799E4,9.1845566E1,4.4695578E2,3.300432E2,3.5538736E2,1.629991E2,4.2888843E2,2.7081357E3,3.3898975E1,7.698939E0,3.2402832E2,7.9662666E0,5.076274E3,6.306852E4,9.80698E3,2.8441855E4,1.7917666E4,1.7281517E1,1.8556307E3,6.8334705E2,1.5345343E1,3.7044098E1,1.3494183E1,5.607815E2,7.752588E1,8.582077E2,5.1719403E2,1.19061356E2,1.4681965E1,7.71636E1,3.2262085E2,1.2433494E2,3.2675854E2,3.28466E0,2.1533044E2,1.4005692E2,1.4378494E2,1.921416E1,1.3218858E2,2.9669983E2,2.3090913E3,3.9904453E2,3.0696901E1,3.2020717E0,6.68715E1,2.5715683E2,6.584262E0,1.382005E0,3.6264502E3,1.4498239E3,2.0357412E4,4.271111E4,4.036828E3,5.7701523E3,1.3845824E2,2.8303396E4,1.7876504E4,4.11613E1,1.5473699E1,1.8078185E0,1.3117153E3,5.4391547E2,2.6232486E2,4.2102216E2],"tree_param":{"num_deleted":"0","num_feature":"25","num_nodes":"97","size_leaf_vector":"1"}},{"base_weights":[1.277677E-2,-8.5601425E-1,1.7033516E-1,-9.530541E-1,-2.3011719E-1,7.739457E-2,7.4723786E-1,-4.6024E-1,-1.0061486E0,-5.1984165E-2,-1.2611139E0,1.3207334E-1,-1.0632931E0,8.9633393E-1,-1.026843E0,-2.7891698E-1,-1.7866982E0,-1.0205415E0,-5.806807E-1,3.443896E-1,-3.8477132E-1,-1.0892254E0,-1.7922853E0,2.7473664E-2,3.31929E-1,-1.2169986E0,-1.0501829E0,1.0104307E0,2.3841849E-1,-5.322622E-1,-3.0719113E-1,-6.9724053E-1,2.5705558E-1,-4.0632315E0,-1.6319273E0,-1.0217342E0,-7.335935E-1,-7.1217316E-1,5.79691E-1,-9.87627E-1,5.4066575E-1,-2.6912292E-2,-8.759234E-1,-1.1875936E0,4.2465088E-1,-2.0859313E0,-5.571771E-1,4.142117E-2,-1.7015706E0,4.5312595E-1,-4.4610405E-1,-3.128632E-1,-2.0369225E0,-3.09649E-1,-3.261076E-1,1.0120726E0,-2.5273234E-1,-3.4550767E-2,6.7754567E-1,1.7946276E-1,-2.563185E-1,-2.4362779E-1,1.637901E-1,-1.7146369E0,-5.565574E-1,-2.1024528E0,-4.772067E-1,-3.0622682E-1,-4.5146522E-1,2.8239617E-1,-3.0396014E-1,-5.001228E-2,-2.9861403E-1,-3.180323E-1,2.684504E-1,-4.1064936E-1,8.119286E-2,-1.9966537E-1,2.0902514E-1,9.6078984E-2,-1.5081754E-1,-3.03947E-1,4.0846914E-2,-4.0907562E-1,-5.909309E-2,2.5551778E-1,-3.2149875E-1,-4.2310697E-1,-6.944604E-1,1.624226E-1,-5.178154E-1,-5.235431E-2,4.4572465E-2,-4.2401567E-1,-2.3927014E0,-2.3325583E-1,1.518415E-1,-3.092023E-1,4.780882E-2,-6.5743226E-1,-4.0550753E-1,3.040011E-1,1.7793648E-1,1.9228584E-1,-6.896989E-1,1.386996E-1,-1.13260955E-1,-0E0,2.4114755E-1],"categories":[],"categories_nodes":[],"categories_segments":[],"categories_sizes":[],"default_left":[0,0,1,0,1,1,0,0,1,0,0,0,0,0,0,0,0,1,1,0,0,0,0,1,0,0,0,0,0,0,0,0,1,0,0,0,0,0,0,1,0,0,1,0,0,0,1,0,0,0,0,0,0,0,0,0,0,0,0,0,0,0,0,0,0,0,0,0,0,0,0,0,0,0,0,0,0,0,0,0,0,0,0,0,0,0,0,0,0,0,0,0,0,0,0,0,0,0,0,0,0,0,0,0,0,0,0,0,0],"id":11,"left_children":[1,3,5,7,9,11,13,15,17,19,21,23,25,27,29,31,33,35,37,39,41,43,45,47,49,51,53,55,57,-1,-1,59,61,63,65,67,69,71,73,75,77,79,81,83,85,87,89,91,93,95,97,-1,99,-1,-1,101,103,105,107,-1,-1,-1,-1,-1,-1,-1,-1,-1,-1,-1,-1,-1,-1,-1,-1,-1,-1,-1,-1,-1,-1,-1,-1,-1,-1,-1,-1,-1,-1,-1,-1,-1,-1,-1,-1,-1,-1,-1,-1,-1,-1,-1,-1,-1,-1,-1,-1,-1,-1],"loss_changes":[2.012236E4,1.3696738E3,6.671473E3,5.1000977E2,5.554621E2,6.6838696E3,4.5665537E3,4.557029E2,1.0671094E2,3.4094272E2,3.8393738E1,2.1377046E3,8.063477E0,1.1945508E3,6.340332E-1,3.755455E2,7.582916E1,4.4296875E0,8.842871E1,3.0773767E2,2.4640308E2,5.093167E1,3.6998962E1,1.6177653E3,3.3130208E3,5.1849487E1,1.3061523E0,2.8756836E1,2.8278683E2,0E0,0E0,1.9171616E2,2.2611362E2,4.572641E1,4.0555725E1,6.0078125E0,3.4419548E1,7.948636E1,2.999567E1,7.3221405E1,1.9349698E2,1.3466388E2,8.288254E1,5.4155975E1,1.2682187E1,1.0414612E1,2.821989E1,1.5410205E3,9.630487E2,1.983063E3,1.6764111E3,0E0,4.1360474E0,0E0,0E0,5.8945312E0,3.2389244E1,2.4722403E2,7.779361E1,0E0,0E0,0E0,0E0,0E0,0E0,0E0,0E0,0E0,0E0,0E0,0E0,0E0,0E0,0E0,0E0,0E0,0E0,0E0,0E0,0E0,0E0,0E0,0E0,0E0,0E0,0E0,0E0,0E0,0E0,0E0,0E0,0E0,0E0,0E0,0E0,0E0,0E0,0E0,0E0,0E0,0E0,0E0,0E0,0E0,0E0,0E0,0E0,0E0,0E0],"parents":[2147483647,0,0,1,1,2,2,3,3,4,4,5,5,6,6,7,7,8,8,9,9,10,10,11,11,12,12,13,13,14,14,15,15,16,16,17,17,18,18,19,19,20,20,21,21,22,22,23,23,24,24,25,25,26,26,27,27,28,28,31,31,32,32,33,33,34,34,35,35,36,36,37,37,38,38,39,39,40,40,41,41,42,42,43,43,44,44,45,45,46,46,47,47,48,48,49,49,50,50,52,52,55,55,56,56,57,57,58,58],"right_children":[2,4,6,8,10,12,14,16,18,20,22,24,26,28,30,32,34,36,38,40,42,44,46,48,50,52,54,56,58,-1,-1,60,62,64,66,68,70,72,74,76,78,80,82,84,86,88,90,92,94,96,98,-1,100,-1,-1,102,104,106,108,-1,-1,-1,-1,-1,-1,-1,-1,-1,-1,-1,-1,-1,-1,-1,-1,-1,-1,-1,-1,-1,-1,-1,-1,-1,-1,-1,-1,-1,-1,-1,-1,-1,-1,-1,-1,-1,-1,-1,-1,-1,-1,-1,-1,-1,-1,-1,-1,-1,-1],"split_conditions":[1E-1,2.5815778E0,1.4699583E2,-3.5E0,2.5263157E-1,-5.8029044E-1,1.4720749E2,4.5086643E1,9.066667E-1,1.908397E-2,1.999389E1,1.7577257E2,3.465704E-1,1.4707315E2,-3.5E0,1.1022291E0,8.435286E-2,1.4699583E2,8.759735E0,-1.4632484E-1,5.6939334E-1,2.6136002E-1,5.656873E-1,1.770102E1,3.85E2,3.1167364E0,6.407581E1,1.8966046E2,4.2029967E0,-5.322622E-1,-3.0719113E-1,-1.5028178E-2,-1.6970204E-3,9.068231E1,7.2060543E-1,7.545126E-1,1.4707315E2,1.4720749E2,1.4699583E2,1.4699583E2,8.0103E-2,1.7620333E1,1.611111E1,5.9550846E-1,1.395815E-5,3.6363637E-1,5.708315E-2,9.569378E-2,9.3E1,1.5E1,1.1974575E1,-3.128632E-1,8.5256874E1,-3.09649E-1,-3.261076E-1,1.353061E2,-1.3338491E-1,3.6842105E-1,6.089892E1,1.7946276E-1,-2.563185E-1,-2.4362779E-1,1.637901E-1,-1.7146369E0,-5.565574E-1,-2.1024528E0,-4.772067E-1,-3.0622682E-1,-4.5146522E-1,2.8239617E-1,-3.0396014E-1,-5.001228E-2,-2.9861403E-1,-3.180323E-1,2.684504E-1,-4.1064936E-1,8.119286E-2,-1.9966537E-1,2.0902514E-1,9.6078984E-2,-1.5081754E-1,-3.03947E-1,4.0846914E-2,-4.0907562E-1,-5.909309E-2,2.5551778E-1,-3.2149875E-1,-4.2310697E-1,-6.944604E-1,1.624226E-1,-5.178154E-1,-5.235431E-2,4.4572465E-2,-4.2401567E-1,-2.3927014E0,-2.3325583E-1,1.518415E-1,-3.092023E-1,4.780882E-2,-6.5743226E-1,-4.0550753E-1,3.040011E-1,1.7793648E-1,1.9228584E-1,-6.896989E-1,1.386996E-1,-1.13260955E-1,-0E0,2.4114755E-1],"split_indices":[8,0,18,19,7,18,18,9,23,17,0,9,9,18,19,4,0,18,4,5,1,20,21,1,8,0,9,0,1,0,0,13,1,9,4,9,18,18,18,18,1,0,3,1,5,2,16,2,8,8,0,0,0,0,0,0,4,7,9,0,0,0,0,0,0,0,0,0,0,0,0,0,0,0,0,0,0,0,0,0,0,0,0,0,0,0,0,0,0,0,0,0,0,0,0,0,0,0,0,0,0,0,0,0,0,0,0,0,0],"split_type":[0,0,0,0,0,0,0,0,0,0,0,0,0,0,0,0,0,0,0,0,0,0,0,0,0,0,0,0,0,0,0,0,0,0,0,0,0,0,0,0,0,0,0,0,0,0,0,0,0,0,0,0,0,0,0,0,0,0,0,0,0,0,0,0,0,0,0,0,0,0,0,0,0,0,0,0,0,0,0,0,0,0,0,0,0,0,0,0,0,0,0,0,0,0,0,0,0,0,0,0,0,0,0,0,0,0,0,0,0],"sum_hessian":[1.470056E5,2.2566549E4,1.2443904E5,1.9536336E4,3.0302136E3,1.0717435E5,1.7264693E4,1.901548E3,1.7634787E4,2.584454E3,4.4575952E2,1.0227262E5,4.901729E3,1.5926647E4,1.3380454E3,1.6734019E3,2.2814613E2,1.7055926E4,5.7886127E2,1.178441E3,1.4060131E3,3.379153E2,1.078442E2,6.7138125E4,3.5134492E4,3.8043527E2,4.521294E3,1.3571791E4,2.3548562E3,4.0568914E0,1.3339885E3,9.406907E2,7.327112E2,1.4194194E1,2.1395193E2,1.6982553E4,7.337339E1,5.2056116E2,5.830015E1,1.508218E2,1.0276193E3,8.1431946E2,5.9169366E2,3.1779425E2,2.0121082E1,8.660598E1,2.1238216E1,6.660134E4,5.367836E2,3.0400004E4,4.7344873E3,3.1460135E2,6.5833916E1,3.0508384E3,1.4704553E3,1.3554805E4,1.6986135E1,1.4510414E3,9.038148E2,1.0122081E2,8.3946985E2,1.5528671E2,5.7742444E2,7.9117236E0,6.28247E0,1.4809492E0,2.12471E2,1.694989E4,3.2661957E1,1.0087231E1,6.3286156E1,1.7887224E2,3.416889E2,8.988971E0,4.931118E1,1.1624125E2,3.4580536E1,1.17151505E2,9.104677E2,4.698288E2,3.4449066E2,5.217388E2,6.9954865E1,2.691668E2,4.8627438E1,1.606927E1,4.051814E0,2.2804895E1,6.3801086E1,1.0595469E1,1.0642747E1,2.20861E4,4.4515246E4,5.133325E2,2.3451136E1,1.2548336E3,2.914517E4,2.4094836E3,2.3250034E3,5.2767452E1,1.3066463E1,1.3512119E4,4.2685505E1,1.155058E1,5.4355555E0,5.9162415E2,8.5941724E2,1.4127084E2,7.62544E2],"tree_param":{"num_deleted":"0","num_feature":"25","num_nodes":"109","size_leaf_vector":"1"}},{"base_weights":[9.791097E-3,-8.0552053E-1,1.3476302E-1,-9.264364E-1,-1.9835348E-1,5.885588E-2,7.182933E-1,-3.5762352E-1,-9.9786836E-1,-5.264967E-2,-1.0971434E0,1.00128025E-1,-1.0473893E0,1.005394E0,-1.867404E-1,-2.1447676E-1,-1.4959619E0,-1.0151534E0,-5.2580875E-1,1.1205147E-1,-7.0256567E-1,-3.183028E-1,-1.2300647E0,1.6712926E-1,-2.2934353E-1,-1.146365E0,-3.10966E-1,3.0269137E-1,2.8490496E-1,1.895893E-1,-3.0591792E-1,-9.882346E-1,5.6996632E-2,-2.4933372E0,-1.4207436E0,-1.0161467E0,-7.5618684E-1,-9.55944E-1,-6.2053513E-2,-1.2835915E0,1.7351155E-1,-3.0822477E-1,-1.0547757E0,-1.0283799E0,8.7486255E-1,-1.3391974E0,-2.803447E-1,1.8968382E-1,-1.0839242E0,-5.7120048E-2,-1.0253177E0,-3.1158E-1,-1.5948921E0,8.775064E-1,-3.6802747E0,3.274681E-1,-6.578537E-1,-3.3530027E-1,2.8687167E-1,4.0964235E-2,-4.1636962E-1,-9.495344E-1,-4.785382E-1,-5.200478E-1,-3.9832795E-1,-3.045895E-1,-4.237713E-1,2.6627395E-1,-3.006228E-1,-3.1004655E-1,1.8599413E-2,5.112969E-1,-9.684941E-2,-3.454409E-1,-4.469014E-1,9.1957785E-2,-1.4338423E-1,-2.4836212E-1,4.4957813E-2,1.2865597E-2,-3.4239647E-1,-5.10783E-1,1.03004545E-1,4.376473E-1,-3.2972923E-1,-4.2538202E-1,-2.1882378E-2,2.938226E-1,-3.4553236E-1,-3.2281736E-1,6.259843E-2,4.1522425E-1,-4.5782244E-1,-1.2639087E-1,5.94317E-2,-4.1854987E-1,2.4827078E-1,-5.088754E-1,-3.0120626E-1,3.0691767E-1,-2.741036E-1,-6.0079074E-1,-2.9232407E0,-1.6141246E-1,1.4740196E-1,-4.823248E-2,-6.6663E-1],"categories":[],"categories_nodes":[],"categories_segments":[],"categories_sizes":[],"default_left":[0,0,1,0,1,1,0,0,1,0,0,0,0,0,0,1,0,1,1,0,1,1,1,0,1,0,0,0,1,0,0,1,1,1,1,0,0,1,0,1,0,1,0,0,0,0,0,0,0,1,0,0,0,0,0,0,1,0,0,0,0,0,0,0,0,0,0,0,0,0,0,0,0,0,0,0,0,0,0,0,0,0,0,0,0,0,0,0,0,0,0,0,0,0,0,0,0,0,0,0,0,0,0,0,0,0,0],"id":12,"left_children":[1,3,5,7,9,11,13,15,17,19,21,23,25,27,29,31,33,35,37,39,41,43,45,47,49,51,-1,-1,53,55,-1,57,59,61,63,65,67,69,71,73,75,77,79,81,83,85,87,89,91,93,95,-1,97,99,101,103,105,-1,-1,-1,-1,-1,-1,-1,-1,-1,-1,-1,-1,-1,-1,-1,-1,-1,-1,-1,-1,-1,-1,-1,-1,-1,-1,-1,-1,-1,-1,-1,-1,-1,-1,-1,-1,-1,-1,-1,-1,-1,-1,-1,-1,-1,-1,-1,-1,-1,-1],"loss_changes":[1.3577781E4,1.2993711E3,5.1176562E3,5.989834E2,3.8441348E2,4.6677837E3,3.456436E3,2.673305E2,1.0581641E2,2.715821E2,4.1174866E1,2.1760005E3,2.1972656E0,2.4989258E1,1.00452014E3,3.0855878E2,1.0640503E1,1.8369141E0,9.195386E1,1.7235316E2,7.0168655E1,5.1469746E1,3.488611E1,2.310782E3,2.282504E3,1.5078766E1,0E0,0E0,1.1757391E2,2.5739212E2,0E0,9.6111206E1,1.2360034E2,3.5095673E0,2.5366821E0,2.296875E0,2.0877998E1,1.9751678E1,1.02388435E2,1.9163513E-1,1.675411E2,5.8416267E1,2.6521942E1,3.66153E1,2.5867332E1,2.9951721E1,4.0465305E1,1.9322214E3,1.5824902E3,1.2730658E3,2.0303086E3,0E0,1.8787231E0,1.1698631E1,5.6261497E1,2.690711E2,2.373914E2,0E0,0E0,0E0,0E0,0E0,0E0,0E0,0E0,0E0,0E0,0E0,0E0,0E0,0E0,0E0,0E0,0E0,0E0,0E0,0E0,0E0,0E0,0E0,0E0,0E0,0E0,0E0,0E0,0E0,0E0,0E0,0E0,0E0,0E0,0E0,0E0,0E0,0E0,0E0,0E0,0E0,0E0,0E0,0E0,0E0,0E0,0E0,0E0,0E0,0E0],"parents":[2147483647,0,0,1,1,2,2,3,3,4,4,5,5,6,6,7,7,8,8,9,9,10,10,11,11,12,12,13,13,14,14,15,15,16,16,17,17,18,18,19,19,20,20,21,21,22,22,23,23,24,24,25,25,28,28,29,29,31,31,32,32,33,33,34,34,35,35,36,36,37,37,38,38,39,39,40,40,41,41,42,42,43,43,44,44,45,45,46,46,47,47,48,48,49,49,50,50,52,52,53,53,54,54,55,55,56,56],"right_children":[2,4,6,8,10,12,14,16,18,20,22,24,26,28,30,32,34,36,38,40,42,44,46,48,50,52,-1,-1,54,56,-1,58,60,62,64,66,68,70,72,74,76,78,80,82,84,86,88,90,92,94,96,-1,98,100,102,104,106,-1,-1,-1,-1,-1,-1,-1,-1,-1,-1,-1,-1,-1,-1,-1,-1,-1,-1,-1,-1,-1,-1,-1,-1,-1,-1,-1,-1,-1,-1,-1,-1,-1,-1,-1,-1,-1,-1,-1,-1,-1,-1,-1,-1,-1,-1,-1,-1,-1,-1],"split_conditions":[1E-1,2.081324E0,1.4699583E2,-3.5E0,2.5263157E-1,-5.8029044E-1,1.4707315E2,5.7841156E1,9.066667E-1,3.464674E-1,-1.9202672E-2,2.4616129E1,3.2E-1,1.353061E2,1.4720749E2,-9.211196E-2,9.068231E1,1.4699583E2,6.94293E-2,3.6266667E-1,2.7903387E-1,1.6695008E-1,1.4699583E2,5.912E2,-3.242194E-2,4.232068E0,-3.10966E-1,3.0269137E-1,-9.532912E-2,2.1359335E1,-3.0591792E-1,1.9804094E0,5.263158E-1,3.4843044E0,2.03311E0,7.545126E-1,1.4707315E2,1.10111065E-1,1.977873E-2,2.2574492E-2,1.4707315E2,3.774074E0,-3.759542E-2,3.8766682E0,-7.0156306E-2,2.583449E-1,1.4706746E2,-5.115292E-2,1E0,-1.5017518E-1,8.1274005E2,-3.1158E-1,3.8989168E-1,2.3971066E2,1E0,1.6911268E-1,5.263158E-1,-3.3530027E-1,2.8687167E-1,4.0964235E-2,-4.1636962E-1,-9.495344E-1,-4.785382E-1,-5.200478E-1,-3.9832795E-1,-3.045895E-1,-4.237713E-1,2.6627395E-1,-3.006228E-1,-3.1004655E-1,1.8599413E-2,5.112969E-1,-9.684941E-2,-3.454409E-1,-4.469014E-1,9.1957785E-2,-1.4338423E-1,-2.4836212E-1,4.4957813E-2,1.2865597E-2,-3.4239647E-1,-5.10783E-1,1.03004545E-1,4.376473E-1,-3.2972923E-1,-4.2538202E-1,-2.1882378E-2,2.938226E-1,-3.4553236E-1,-3.2281736E-1,6.259843E-2,4.1522425E-1,-4.5782244E-1,-1.2639087E-1,5.94317E-2,-4.1854987E-1,2.4827078E-1,-5.088754E-1,-3.0120626E-1,3.0691767E-1,-2.741036E-1,-6.0079074E-1,-2.9232407E0,-1.6141246E-1,1.4740196E-1,-4.823248E-2,-6.6663E-1],"split_indices":[8,0,18,19,7,18,18,9,23,14,13,0,8,0,18,12,9,18,12,23,1,4,18,8,4,0,0,0,4,0,0,16,7,4,4,9,18,1,22,1,18,3,17,21,12,20,18,15,10,4,9,0,9,0,10,1,7,0,0,0,0,0,0,0,0,0,0,0,0,0,0,0,0,0,0,0,0,0,0,0,0,0,0,0,0,0,0,0,0,0,0,0,0,0,0,0,0,0,0,0,0,0,0,0,0,0,0],"split_type":[0,0,0,0,0,0,0,0,0,0,0,0,0,0,0,0,0,0,0,0,0,0,0,0,0,0,0,0,0,0,0,0,0,0,0,0,0,0,0,0,0,0,0,0,0,0,0,0,0,0,0,0,0,0,0,0,0,0,0,0,0,0,0,0,0,0,0,0,0,0,0,0,0,0,0,0,0,0,0,0,0,0,0,0,0,0,0,0,0,0,0,0,0,0,0,0,0,0,0,0,0,0,0,0,0,0,0],"sum_hessian":[1.3326308E5,1.771098E4,1.155521E5,1.4768542E4,2.942439E3,1.02252234E5,1.3299866E4,1.6489707E3,1.3119571E4,2.5327434E3,4.096957E2,9.857528E4,3.6769546E3,1.0097542E4,3.202324E3,1.4653987E3,1.8357202E2,1.2654516E4,4.6505634E2,2.0196854E3,5.1305786E2,6.0604984E1,3.4909073E2,8.1918734E4,1.6656543E4,3.555472E2,3.3214075E3,1.0046552E4,5.0990555E1,2.205124E3,9.972001E2,3.8136707E2,1.0840316E3,1.2127602E1,1.7144441E2,1.2603087E4,5.142803E1,2.403788E2,2.2467755E2,8.4640564E1,1.9350449E3,2.431236E2,2.6993427E2,3.841432E1,2.2190662E1,3.1235553E2,3.6735203E1,8.046865E4,1.4500858E3,1.3694496E4,2.962048E3,2.8810858E2,6.743865E1,4.45363E1,6.454253E0,1.8973668E3,3.0775714E2,3.579516E2,2.3415459E1,1.0279879E3,5.6043694E1,6.4287977E0,5.6988034E0,3.731901E1,1.341254E2,1.2578188E4,2.4898512E1,6.26865E0,4.5159378E1,2.2409375E2,1.6285048E1,2.85084E1,1.9616914E2,5.3940323E1,3.0700245E1,1.6079608E3,3.2708417E2,1.1472565E2,1.2839795E2,1.9052137E1,2.5088213E2,2.6146189E1,1.2268133E1,1.7437391E1,4.753272E0,2.9347394E2,1.8881596E1,1.4645457E1,2.2089745E1,1.1880425E3,7.928061E4,2.2004195E2,1.230044E3,5.644073E3,8.0504224E3,2.4695427E3,4.9250534E2,5.6408318E1,1.103033E1,4.160231E1,2.9339912E0,5.158909E0,1.2953444E0,3.01273E2,1.5960938E3,2.3393105E2,7.382608E1],"tree_param":{"num_deleted":"0","num_feature":"25","num_nodes":"107","size_leaf_vector":"1"}},{"base_weights":[6.0719005E-3,-7.526847E-1,1.0471685E-1,-8.944758E-1,-1.6076554E-1,4.3347478E-2,6.86683E-1,-2.902097E-1,-9.873512E-1,-4.3948345E-2,-1.0110396E0,1.1791411E-1,-4.432018E-1,1.0015599E0,-1.592136E-1,-9.856887E-1,-1.1379253E-1,-1.0109751E0,-4.4233558E-1,6.657738E-2,-7.8050077E-1,-2.6770958E-1,-1.1502194E0,1.3168931E-1,-1.1096861E0,-1.7797751E0,5.7585478E-2,3.0162308E-1,3.2043523E-1,1.4964548E-1,-3.0439058E-1,-1.1176393E0,2.192658E-1,5.995496E-2,-1.2255001E0,-1.0111481E0,-0E0,-9.877722E-1,-3.7387546E-2,1.32409E-1,-3.2036552E-1,-1.0323488E0,-1.9643612E-2,-8.591606E-1,7.877864E-1,-1.30931E0,-4.9523804E-1,-3.3197898E-1,1.686146E-1,-1.2356013E0,1.2666835E0,-2.6271746E0,-3.063243E-1,1.7318037E-1,-1.0649966E0,7.2426486E-1,-6.4967155E-1,-1.3844117E-2,7.57091E-1,-3.1017178E-1,-4.419885E-1,3.129049E-1,-3.833849E-1,-3.617785E-2,2.7040368E-1,-2.1861424E0,-3.4458604E-1,-3.0359718E-1,-2.3280373E-1,-3.0331418E-1,-2.1071844E-2,7.806966E-1,-5.3683545E-2,-1.9152131E-2,2.8831434E-1,-3.9259282E-1,-1.7830706E-1,-4.847643E-1,9.359204E-2,-4.1559634E-1,1.7164859E-1,-3.522551E-1,3.647603E-1,-4.5895875E-1,-2.9857937E-1,-3.8239694E-1,-0E0,2.0014614E-2,-3.4930533E-1,2.7862737E-2,1.1185027E-1,-2.5738195E-1,-4.329898E-1,7.653568E-1,-3.9530447E-1,-6.8076783E-1,-3.2927759E0,-5.577544E-1,5.7156015E-2,-4.162807E-1,-3.102196E-1,2.6827362E-1,-9.4741516E-2,4.3146614E-2,-2.9543528E-1,2.4089904E-1,-5.745097E-1],"categories":[],"categories_nodes":[],"categories_segments":[],"categories_sizes":[],"default_left":[0,0,1,0,1,0,0,1,1,1,0,0,0,0,0,1,0,1,1,1,1,0,1,0,1,1,1,0,1,0,0,1,0,0,0,1,0,0,0,1,0,0,1,0,1,0,0,1,0,0,0,0,0,0,0,0,0,0,0,0,0,0,0,0,0,0,0,0,0,0,0,0,0,0,0,0,0,0,0,0,0,0,0,0,0,0,0,0,0,0,0,0,0,0,0,0,0,0,0,0,0,0,0,0,0,0,0],"id":13,"left_children":[1,3,5,7,9,11,13,15,17,19,21,23,25,27,29,31,33,35,37,39,41,43,45,47,49,51,53,-1,55,57,-1,59,61,63,65,67,-1,69,71,73,-1,75,77,79,81,83,85,87,89,91,93,95,-1,97,99,101,-1,103,105,-1,-1,-1,-1,-1,-1,-1,-1,-1,-1,-1,-1,-1,-1,-1,-1,-1,-1,-1,-1,-1,-1,-1,-1,-1,-1,-1,-1,-1,-1,-1,-1,-1,-1,-1,-1,-1,-1,-1,-1,-1,-1,-1,-1,-1,-1,-1,-1],"loss_changes":[9.134941E3,1.1776475E3,3.8570806E3,6.346592E2,2.6879297E2,3.5447065E3,2.7447422E3,1.8440768E2,1.2523242E2,1.9493822E2,3.2704407E1,1.4319906E3,8.691604E3,1.8629883E1,7.3887427E2,4.9155212E1,2.3378429E2,1.2626953E0,8.957024E1,1.5422708E2,5.9034256E1,3.2825382E1,2.7169128E1,1.4344021E3,2.811078E2,2.272454E3,1.2248059E3,0E0,4.239035E1,2.0439148E2,0E0,6.1889954E0,3.6157623E1,1.5890779E2,6.947537E1,4.326172E-1,0E0,2.8408203E0,8.6139084E1,3.1977008E2,0E0,2.6791763E1,4.259519E1,2.635077E1,1.5457387E1,1.3214172E1,2.1080011E1,2.0513948E3,1.2000293E3,6.817346E1,1.5687161E2,4.9840625E3,0E0,3.0043317E2,6.854248E0,7.108179E0,0E0,2.4803976E2,5.2619843E1,0E0,0E0,0E0,0E0,0E0,0E0,0E0,0E0,0E0,0E0,0E0,0E0,0E0,0E0,0E0,0E0,0E0,0E0,0E0,0E0,0E0,0E0,0E0,0E0,0E0,0E0,0E0,0E0,0E0,0E0,0E0,0E0,0E0,0E0,0E0,0E0,0E0,0E0,0E0,0E0,0E0,0E0,0E0,0E0,0E0,0E0,0E0,0E0],"parents":[2147483647,0,0,1,1,2,2,3,3,4,4,5,5,6,6,7,7,8,8,9,9,10,10,11,11,12,12,13,13,14,14,15,15,16,16,17,17,18,18,19,19,20,20,21,21,22,22,23,23,24,24,25,25,26,26,28,28,29,29,31,31,32,32,33,33,34,34,35,35,37,37,38,38,39,39,41,41,42,42,43,43,44,44,45,45,46,46,47,47,48,48,49,49,50,50,51,51,53,53,54,54,55,55,57,57,58,58],"right_children":[2,4,6,8,10,12,14,16,18,20,22,24,26,28,30,32,34,36,38,40,42,44,46,48,50,52,54,-1,56,58,-1,60,62,64,66,68,-1,70,72,74,-1,76,78,80,82,84,86,88,90,92,94,96,-1,98,100,102,-1,104,106,-1,-1,-1,-1,-1,-1,-1,-1,-1,-1,-1,-1,-1,-1,-1,-1,-1,-1,-1,-1,-1,-1,-1,-1,-1,-1,-1,-1,-1,-1,-1,-1,-1,-1,-1,-1,-1,-1,-1,-1,-1,-1,-1,-1,-1,-1,-1,-1],"split_conditions":[1E-1,2.081324E0,1.4699583E2,-3.5E0,2.5263157E-1,-3.5E0,1.4707315E2,-9.211196E-2,9.066667E-1,2.9873103E-1,-1.9202672E-2,1.8966046E2,2.5E0,1.353061E2,1.4720749E2,1.898855E0,2.5700361E1,3.6691203E0,1.6847827E-2,1.4720749E2,4.558531E0,4.9480195E0,2.335151E-2,-1.2740741E0,6.2720885E0,-5.8029044E-1,9.449252E-1,3.0162308E-1,7.368421E-1,2.2941878E2,-3.0439058E-1,-1.6970204E-3,2.7125444E0,1.3357401E0,3.638628E1,1.4699583E2,-0E0,1.6708531E0,2.527174E-2,1.4699583E2,-3.2036552E-1,1.4699583E2,1.5246949E-1,3.8024457E0,1.6695008E-1,-3.5E0,6.220096E-1,1.494347E-1,2.5526715E2,2.3971066E2,4.784689E-3,9.068231E1,-3.063243E-1,-7.963802E-2,4.296029E-1,-9.532912E-2,-6.4967155E-1,1.999389E1,7.0306915E1,-3.1017178E-1,-4.419885E-1,3.129049E-1,-3.833849E-1,-3.617785E-2,2.7040368E-1,-2.1861424E0,-3.4458604E-1,-3.0359718E-1,-2.3280373E-1,-3.0331418E-1,-2.1071844E-2,7.806966E-1,-5.3683545E-2,-1.9152131E-2,2.8831434E-1,-3.9259282E-1,-1.7830706E-1,-4.847643E-1,9.359204E-2,-4.1559634E-1,1.7164859E-1,-3.522551E-1,3.647603E-1,-4.5895875E-1,-2.9857937E-1,-3.8239694E-1,-0E0,2.0014614E-2,-3.4930533E-1,2.7862737E-2,1.1185027E-1,-2.5738195E-1,-4.329898E-1,7.653568E-1,-3.9530447E-1,-6.8076783E-1,-3.2927759E0,-5.577544E-1,5.7156015E-2,-4.162807E-1,-3.102196E-1,2.6827362E-1,-9.4741516E-2,4.3146614E-2,-2.9543528E-1,2.4089904E-1,-5.745097E-1],"split_indices":[8,0,18,19,7,19,18,12,23,5,13,0,19,0,18,17,9,12,14,18,4,1,12,3,1,18,18,0,7,9,0,1,1,9,9,18,0,0,14,18,0,18,21,14,4,19,2,5,9,0,2,9,0,20,9,4,0,0,0,0,0,0,0,0,0,0,0,0,0,0,0,0,0,0,0,0,0,0,0,0,0,0,0,0,0,0,0,0,0,0,0,0,0,0,0,0,0,0,0,0,0,0,0,0,0,0,0],"split_type":[0,0,0,0,0,0,0,0,0,0,0,0,0,0,0,0,0,0,0,0,0,0,0,0,0,0,0,0,0,0,0,0,0,0,0,0,0,0,0,0,0,0,0,0,0,0,0,0,0,0,0,0,0,0,0,0,0,0,0,0,0,0,0,0,0,0,0,0,0,0,0,0,0,0,0,0,0,0,0,0,0,0,0,0,0,0,0,0,0,0,0,0,0,0,0,0,0,0,0,0,0,0,0,0,0,0,0],"sum_hessian":[1.220543E5,1.4041542E4,1.0801276E5,1.1326894E4,2.714649E3,9.771039E4,1.0302361E4,1.510152E3,9.816741E3,2.3875674E3,3.2708154E2,8.472709E4,1.2983298E4,7.5083833E3,2.793978E3,3.0464267E2,1.2055093E3,9.407501E3,4.0924042E2,2.0750962E3,3.124713E2,5.249021E1,2.745913E2,8.378755E4,9.39549E2,3.5391367E3,9.444161E3,7.4650103E3,4.337323E1,2.0521074E3,7.418704E2,2.7517325E2,2.9469412E1,1.0419453E3,1.6356403E2,9.405518E3,1.9829483E0,1.735309E2,2.3570952E2,1.9619514E3,1.1314474E2,2.3397337E2,7.849793E1,3.4125694E1,1.836452E1,2.1994641E2,5.4644905E1,6.1788213E3,7.760873E4,8.925906E2,4.695846E1,1.6713362E3,1.8678005E3,8.56311E3,8.810508E2,3.7589027E1,5.7842007E0,1.6158864E3,4.362212E2,2.2455473E2,5.061853E1,1.9354898E1,1.0114514E1,8.5708E2,1.8486526E2,1.9181838E0,1.6164584E2,9.36855E3,3.6968113E1,1.6838751E2,5.143378E0,1.1709222E1,2.240003E2,1.585489E3,3.764624E2,1.423498E2,9.162358E1,1.3917676E1,6.458025E1,2.5361586E1,8.764107E0,2.954542E0,1.5409977E1,1.27709404E2,9.2237015E1,2.1223127E1,3.3421776E1,4.1770923E3,2.0017286E3,5.6615637E4,2.0993088E4,3.180767E2,5.7451385E2,3.1574537E1,1.5383924E1,1.6027163E3,6.861992E1,7.205026E1,8.49106E3,7.482124E1,8.0622955E2,3.296988E1,4.619149E0,1.3894384E3,2.2644797E2,4.29148E2,7.073163E0],"tree_param":{"num_deleted":"0","num_feature":"25","num_nodes":"107","size_leaf_vector":"1"}},{"base_weights":[5.4327487E-3,-6.9301474E-1,8.251133E-2,-1.6310978E-1,-8.924843E-1,3.389985E-2,6.4929926E-1,-7.756301E-2,-1.0680196E0,-9.9246484E-1,1.3814293E-1,5.75695E-2,-3.0800503E-1,9.9771655E-1,-1.3280715E-1,2.8621877E-2,-9.374919E-1,1.89883E-1,-3.450418E-1,-9.9864423E-1,4.1109437E-1,1.0651782E0,-9.117593E-1,6.525816E-2,-1.6555725E0,1.0023335E0,2.7616903E-1,1.1708676E-1,-3.0318278E-1,3.5967737E-1,-1.6447811E-1,-1.1675422E0,-2.832104E-1,-3.7756556E-1,3.4625274E-1,-1.010634E0,-6.484618E-1,-4.1463545E-1,1.0567138E0,3.2087916E-1,4.824093E-2,-1.0107183E0,-2.6396638E-1,7.499135E-2,-1.0861447E0,-1.3138126E0,-6.134943E0,3.0121467E-1,8.0911297E-1,8.0443853E-1,-1.0372238E0,-9.9302284E-2,5.240407E-1,-4.695368E-1,1.3386793E-1,-2.7155977E-1,-8.013685E-3,-4.9670798E-1,-3.2349128E-1,1.775849E-1,-2.769132E-1,-3.0014586E-1,-4.7097364E-1,-3.8481334E-1,-1.5048619E-2,-3.4338364E-1,3.5682958E-1,-2.695081E-1,-4.1476718E-1,2.4767458E-1,-2.9991257E-1,3.7872374E-2,-4.8723172E-2,-5.3715896E-2,-6.474432E-1,-3.4377798E-1,-1.3046012E0,-6.1789985E0,-1.5522807E0,2.8769243E-1,-1.0890216E0,2.9731986E-1,-2.5090072E-1,2.1900949E-1,-6.339485E-1,8.0160335E-2,-2.557537E-1,1.7362165E-1,-4.097931E-1],"categories":[],"categories_nodes":[],"categories_segments":[],"categories_sizes":[],"default_left":[0,0,1,1,1,1,0,1,0,1,0,1,0,0,0,0,1,1,0,1,0,0,0,1,0,0,0,0,0,0,1,0,0,0,0,0,0,0,1,0,0,0,0,0,0,0,0,0,1,0,0,1,0,0,0,0,0,0,0,0,0,0,0,0,0,0,0,0,0,0,0,0,0,0,0,0,0,0,0,0,0,0,0,0,0,0,0,0,0],"id":14,"left_children":[1,3,5,7,9,11,13,15,17,19,21,23,-1,25,27,29,31,33,-1,35,37,39,41,43,45,47,49,51,-1,53,55,57,59,-1,-1,61,63,-1,65,-1,-1,67,69,71,73,75,77,-1,79,81,83,85,87,-1,-1,-1,-1,-1,-1,-1,-1,-1,-1,-1,-1,-1,-1,-1,-1,-1,-1,-1,-1,-1,-1,-1,-1,-1,-1,-1,-1,-1,-1,-1,-1,-1,-1,-1,-1],"loss_changes":[6.1046147E3,1.1903916E3,2.8134705E3,2.3776169E2,8.4426904E2,2.3606455E3,2.1987776E3,2.580173E2,2.8193237E1,6.520264E1,7.0406354E2,1.210717E3,0E0,1.7569824E1,5.4587946E2,1.6043343E2,4.55784E1,2.1807224E1,0E0,2.9873535E1,3.6958267E1,5.523071E-1,2.0695648E1,1.0257751E3,6.226985E2,3.8720703E-1,2.5198322E1,1.7063452E2,0E0,1.5323088E2,1.6069293E2,7.7813416E0,4.600431E1,0E0,0E0,3.8711426E1,9.312764E1,0E0,7.0375233E0,0E0,0E0,1.0407593E1,3.6983555E1,1.1051602E3,7.441319E2,1.9008899E2,3.8150867E2,0E0,3.305103E1,8.246468E0,2.0235512E1,3.4863815E2,6.890408E1,0E0,0E0,0E0,0E0,0E0,0E0,0E0,0E0,0E0,0E0,0E0,0E0,0E0,0E0,0E0,0E0,0E0,0E0,0E0,0E0,0E0,0E0,0E0,0E0,0E0,0E0,0E0,0E0,0E0,0E0,0E0,0E0,0E0,0E0,0E0,0E0],"parents":[2147483647,0,0,1,1,2,2,3,3,4,4,5,5,6,6,7,7,8,8,9,9,10,10,11,11,13,13,14,14,15,15,16,16,17,17,19,19,20,20,21,21,22,22,23,23,24,24,25,25,26,26,27,27,29,29,30,30,31,31,32,32,35,35,36,36,38,38,41,41,42,42,43,43,44,44,45,45,46,46,48,48,49,49,50,50,51,51,52,52],"right_children":[2,4,6,8,10,12,14,16,18,20,22,24,-1,26,28,30,32,34,-1,36,38,40,42,44,46,48,50,52,-1,54,56,58,60,-1,-1,62,64,-1,66,-1,-1,68,70,72,74,76,78,-1,80,82,84,86,88,-1,-1,-1,-1,-1,-1,-1,-1,-1,-1,-1,-1,-1,-1,-1,-1,-1,-1,-1,-1,-1,-1,-1,-1,-1,-1,-1,-1,-1,-1,-1,-1,-1,-1,-1,-1],"split_conditions":[1E-1,-8.817442E0,1.4699583E2,8.93299E0,1.4699583E2,-5.8029044E-1,1.4707315E2,4.2105263E-1,8.966919E-2,4.291576E0,1.4707315E2,2.6210527E0,-3.0800503E-1,1.353061E2,1.4720749E2,-9.355566E-3,3.214948E-2,5.4869547E0,-3.450418E-1,4.133333E0,8.809994E0,1.8966046E2,1.584173E1,6.3074074E1,1.2887726E2,7.0306915E1,-9.532912E-2,2.474074E1,-3.0318278E-1,-1.5188043E-1,-4.2880435E-2,0E0,3.774074E0,-3.7756556E-1,3.4625274E-1,3.4483185E0,1.4699583E2,-4.1463545E-1,0E0,3.2087916E-1,4.824093E-2,1.49184885E1,1.4720749E2,2.4616129E1,3.51E1,1.0153999E1,4.3414734E-2,3.0121467E-1,1.0526316E0,2.3971066E2,2.5263157E-1,9.4736844E-1,4.400442E1,-4.695368E-1,1.3386793E-1,-2.7155977E-1,-8.013685E-3,-4.9670798E-1,-3.2349128E-1,1.775849E-1,-2.769132E-1,-3.0014586E-1,-4.7097364E-1,-3.8481334E-1,-1.5048619E-2,-3.4338364E-1,3.5682958E-1,-2.695081E-1,-4.1476718E-1,2.4767458E-1,-2.9991257E-1,3.7872374E-2,-4.8723172E-2,-5.3715896E-2,-6.474432E-1,-3.4377798E-1,-1.3046012E0,-6.1789985E0,-1.5522807E0,2.8769243E-1,-1.0890216E0,2.9731986E-1,-2.5090072E-1,2.1900949E-1,-6.339485E-1,8.0160335E-2,-2.557537E-1,1.7362165E-1,-4.097931E-1],"split_indices":[8,24,18,1,18,18,18,7,0,14,18,7,0,0,18,20,22,13,0,3,5,0,12,3,9,0,4,3,0,5,14,11,3,0,0,0,18,0,3,0,0,0,18,0,8,0,13,0,7,0,7,7,0,0,0,0,0,0,0,0,0,0,0,0,0,0,0,0,0,0,0,0,0,0,0,0,0,0,0,0,0,0,0,0,0,0,0,0,0],"split_type":[0,0,0,0,0,0,0,0,0,0,0,0,0,0,0,0,0,0,0,0,0,0,0,0,0,0,0,0,0,0,0,0,0,0,0,0,0,0,0,0,0,0,0,0,0,0,0,0,0,0,0,0,0,0,0,0,0,0,0,0,0,0,0,0,0,0,0,0,0,0,0,0,0,0,0,0,0,0,0,0,0,0,0,0,0,0,0,0,0],"sum_hessian":[1.13403266E5,1.1269979E4,1.0213329E5,3.083214E3,8.1867646E3,9.40669E4,8.0663867E3,2.8177214E3,2.654927E2,7.4635103E3,7.232543E2,9.2014125E4,2.052778E3,5.5811064E3,2.4852803E3,2.5071995E3,3.1052185E2,1.5673004E1,2.498197E2,7.431363E3,3.2147823E1,3.8450702E2,3.3874728E2,9.160347E4,4.1065384E2,5.54452E3,3.658637E1,1.9338406E3,5.5143976E2,9.2518384E2,1.5820157E3,2.2883797E2,8.168387E1,5.932441E0,9.740563E0,7.183138E3,2.482242E2,8.182302E0,2.396552E1,3.8175708E2,2.7499282E0,2.9278543E2,4.5961864E1,9.08363E4,7.671747E2,3.8170935E2,2.8944468E1,5.491627E3,5.2893154E1,2.6526184E1,1.00601845E1,1.2612383E3,6.7260223E2,3.941323E1,8.8577057E2,2.4718375E2,1.3348319E3,3.3982388E1,1.9485559E2,3.3969833E1,4.7714035E1,7.056532E3,1.2660592E2,1.19843094E2,1.283811E2,1.019972E0,2.2945549E1,2.2649663E2,6.6288795E1,1.8088123E1,2.787374E1,7.471116E4,1.6125136E4,4.159539E2,3.512208E2,3.6195016E2,1.975919E1,1.7511032E0,2.7193365E1,5.1340183E1,1.5529716E0,2.4254917E1,2.2712677E0,3.52566E0,6.534524E0,8.4769666E2,4.1354163E2,6.5409564E2,1.8506594E1],"tree_param":{"num_deleted":"0","num_feature":"25","num_nodes":"89","size_leaf_vector":"1"}},{"base_weights":[3.5652115E-3,-8.54251E-1,4.8020605E-2,-1.1255914E0,-8.202121E-2,-1.7553665E-1,1.4602573E-1,-1.0177208E0,-2.4219377E0,-9.78661E-1,5.351679E-1,-1.0480296E-1,-8.8042843E-1,1.0250456E-1,6.9859236E-1,-1.0053296E0,-4.708398E0,5.694434E-2,-2.9565961E0,4.2221755E-1,-1.0222831E0,-1.7042979E0,7.025387E-1,1.6444044E-3,-4.7931007E-1,-6.178285E-1,-2.5323536E0,1.4519386E-1,-2.7336055E-1,9.960951E-1,8.392953E-5,-1.0348423E0,-1.0807871E-1,-7.4271483E0,-3.21393E0,6.667226E-1,-2.8943748E0,-1.0630678E0,-4.0240817E0,-2.405642E0,-3.033833E-1,-2.0339355E0,-7.431855E-1,7.6602674E-1,-1.3065124E0,3.818068E-2,-8.089536E-1,-1.057753E-1,-1.0694567E0,-1.2419897E0,-2.56182E-1,-1.2953686E0,-3.6027436E0,3.991416E-2,4.0445945E-1,-1.6314973E0,-1.4628077E-1,9.987352E-1,-1.6021916E-1,2.1639004E-1,-3.011058E-1,-2.9833677E-1,-4.344178E-1,2.4714416E-1,-5.944681E-1,-1.26326E0,-2.6469038E0,-1.1944438E0,-4.250811E-1,-8.311618E-1,2.7735102E-1,-1.4897525E0,7.54329E-2,1.6490674E-2,-8.0793136E-1,-9.655796E-1,-1.8720393E0,-2.12168E-1,-1.0323993E0,-1.445756E0,-5.7565224E-1,-3.1189117E-1,1.1367208E-1,2.8099096E-1,2.6687114E-2,-6.321683E-1,2.4580075E-1,2.9362561E-2,-1.5337144E-1,4.3323018E-2,-5.039488E-1,8.890353E-2,-1.6183677E-1,-3.2857212E-1,9.7004496E-2,-4.2223242E-1,-8.434294E-3,-5.638277E-2,-7.6551414E-1,-1.4899977E0,-2.8685832E-1,-1.5291535E0,-4.648783E-1,5.776978E-2,-4.1594576E-2,-3.6291134E-2,1.6743028E-1,-6.519878E-1,-1.7777051E-1,-4.2020148E-3,-4.049904E-1,3.0089316E-1,1.997275E-1,6.8552606E-2,-3.681746E-1,-6.90211E-2,1.382448E-1],"categories":[],"categories_nodes":[],"categories_segments":[],"categories_sizes":[],"default_left":[0,1,0,0,0,1,1,0,0,0,0,1,0,0,0,0,0,1,0,0,0,0,1,1,0,0,1,0,0,0,0,0,1,0,0,0,1,0,0,0,0,0,1,0,1,0,0,0,1,1,0,1,0,0,0,0,0,0,1,0,0,0,0,0,0,0,0,0,0,0,0,0,0,0,0,0,0,0,0,0,0,0,0,0,0,0,0,0,0,0,0,0,0,0,0,0,0,0,0,0,0,0,0,0,0,0,0,0,0,0,0,0,0,0,0,0,0],"id":15,"left_children":[1,3,5,7,9,11,13,15,17,19,21,23,25,27,29,31,33,35,37,-1,39,41,43,45,47,49,51,53,55,57,59,61,63,65,67,69,71,73,75,77,-1,79,81,83,85,87,89,91,93,95,97,99,101,103,105,107,109,111,113,115,-1,-1,-1,-1,-1,-1,-1,-1,-1,-1,-1,-1,-1,-1,-1,-1,-1,-1,-1,-1,-1,-1,-1,-1,-1,-1,-1,-1,-1,-1,-1,-1,-1,-1,-1,-1,-1,-1,-1,-1,-1,-1,-1,-1,-1,-1,-1,-1,-1,-1,-1,-1,-1,-1,-1,-1,-1],"loss_changes":[4.0932285E3,1.1071648E3,2.2361938E3,5.443828E2,7.617344E2,1.5500771E3,1.7058365E3,1.6064209E2,3.999198E2,5.8130737E1,3.044437E2,1.127337E3,1.2275408E3,1.0553765E3,1.0755586E3,9.4434814E1,3.97265E1,9.352616E1,4.952683E2,0E0,5.6660767E0,1.5614899E1,9.626068E1,6.512588E2,1.3786461E3,5.5116644E2,5.1049805E2,1.6120792E3,1.1561865E3,1.1757324E1,3.354545E2,5.6208984E1,2.026262E2,7.627136E0,6.5102005E0,3.761223E1,6.140145E1,1.6490927E2,2.7393677E2,3.3316975E0,0E0,7.849457E0,5.5175123E0,8.411041E1,3.9901924E1,6.9045844E2,7.886171E2,6.6869916E2,8.7701904E1,1.7898291E2,2.4063452E2,2.2011975E2,6.326941E2,1.145296E3,1.3774109E3,3.2051917E2,9.755206E2,3.7836914E0,3.9441133E0,1.392267E2,0E0,0E0,0E0,0E0,0E0,0E0,0E0,0E0,0E0,0E0,0E0,0E0,0E0,0E0,0E0,0E0,0E0,0E0,0E0,0E0,0E0,0E0,0E0,0E0,0E0,0E0,0E0,0E0,0E0,0E0,0E0,0E0,0E0,0E0,0E0,0E0,0E0,0E0,0E0,0E0,0E0,0E0,0E0,0E0,0E0,0E0,0E0,0E0,0E0,0E0,0E0,0E0,0E0,0E0,0E0,0E0,0E0],"parents":[2147483647,0,0,1,1,2,2,3,3,4,4,5,5,6,6,7,7,8,8,9,9,10,10,11,11,12,12,13,13,14,14,15,15,16,16,17,17,18,18,20,20,21,21,22,22,23,23,24,24,25,25,26,26,27,27,28,28,29,29,30,30,31,31,32,32,33,33,34,34,35,35,36,36,37,37,38,38,39,39,41,41,42,42,43,43,44,44,45,45,46,46,47,47,48,48,49,49,50,50,51,51,52,52,53,53,54,54,55,55,56,56,57,57,58,58,59,59],"right_children":[2,4,6,8,10,12,14,16,18,20,22,24,26,28,30,32,34,36,38,-1,40,42,44,46,48,50,52,54,56,58,60,62,64,66,68,70,72,74,76,78,-1,80,82,84,86,88,90,92,94,96,98,100,102,104,106,108,110,112,114,116,-1,-1,-1,-1,-1,-1,-1,-1,-1,-1,-1,-1,-1,-1,-1,-1,-1,-1,-1,-1,-1,-1,-1,-1,-1,-1,-1,-1,-1,-1,-1,-1,-1,-1,-1,-1,-1,-1,-1,-1,-1,-1,-1,-1,-1,-1,-1,-1,-1,-1,-1,-1,-1,-1,-1,-1,-1],"split_conditions":[-5.115292E-2,2.200957E-1,9.3E0,7.5E0,1.9878632E-1,1.8E0,1.4699583E2,8.234296E1,-3.3395952E-3,-7.0740743E0,-1.4613356E-1,1.5771237E-1,2.0032492E1,2.87E2,1.4707315E2,7.397112E0,1.8530325E2,1.0526316E-1,2.188542E0,4.2221755E-1,-8.507815E-2,-3.5E0,2.0607795E-1,1.0209589E1,-3.5E0,1E0,3.812998E-1,2.2941878E2,1.1132716E-2,1.8966046E2,1.4720749E2,6.4620936E-1,9.238926E-1,3.4131873E-1,2.3150089E0,2.898556E1,3.711111E1,1.037037E1,5.234296E1,1.1E-1,-3.033833E-1,2.6487183E1,-3.759542E-2,3.1056465E1,3.074074E1,4.005567E1,4.335358E-1,4.483431E-1,3.6691203E0,8.740741E0,1.1974575E1,-4.7777777E0,9.1106296E-1,7.0063043E0,2.4442863E0,1.0153999E1,3.1603124E0,7.0306915E1,3.1578946E-1,5.9378713E-1,-3.011058E-1,-2.9833677E-1,-4.344178E-1,2.4714416E-1,-5.944681E-1,-1.26326E0,-2.6469038E0,-1.1944438E0,-4.250811E-1,-8.311618E-1,2.7735102E-1,-1.4897525E0,7.54329E-2,1.6490674E-2,-8.0793136E-1,-9.655796E-1,-1.8720393E0,-2.12168E-1,-1.0323993E0,-1.445756E0,-5.7565224E-1,-3.1189117E-1,1.1367208E-1,2.8099096E-1,2.6687114E-2,-6.321683E-1,2.4580075E-1,2.9362561E-2,-1.5337144E-1,4.3323018E-2,-5.039488E-1,8.890353E-2,-1.6183677E-1,-3.2857212E-1,9.7004496E-2,-4.2223242E-1,-8.434294E-3,-5.638277E-2,-7.6551414E-1,-1.4899977E0,-2.8685832E-1,-1.5291535E0,-4.648783E-1,5.776978E-2,-4.1594576E-2,-3.6291134E-2,1.6743028E-1,-6.519878E-1,-1.7777051E-1,-4.2020148E-3,-4.049904E-1,3.0089316E-1,1.997275E-1,6.8552606E-2,-3.681746E-1,-6.90211E-2,1.382448E-1],"split_indices":[15,2,8,8,0,7,18,9,13,3,4,13,9,8,18,9,9,2,0,0,12,19,5,1,19,10,5,9,22,0,18,9,1,0,0,9,3,3,9,8,0,0,17,0,3,0,0,0,12,3,0,3,5,0,0,0,15,0,7,16,0,0,0,0,0,0,0,0,0,0,0,0,0,0,0,0,0,0,0,0,0,0,0,0,0,0,0,0,0,0,0,0,0,0,0,0,0,0,0,0,0,0,0,0,0,0,0,0,0,0,0,0,0,0,0,0,0],"split_type":[0,0,0,0,0,0,0,0,0,0,0,0,0,0,0,0,0,0,0,0,0,0,0,0,0,0,0,0,0,0,0,0,0,0,0,0,0,0,0,0,0,0,0,0,0,0,0,0,0,0,0,0,0,0,0,0,0,0,0,0,0,0,0,0,0,0,0,0,0,0,0,0,0,0,0,0,0,0,0,0,0,0,0,0,0,0,0,0,0,0,0,0,0,0,0,0,0,0,0,0,0,0,0,0,0,0,0,0,0,0,0,0,0,0,0,0,0],"sum_hessian":[1.0735338E5,5.28847E3,1.0206491E5,3.91264E3,1.3758306E3,3.1104648E4,7.0960266E4,3.6126443E3,2.9999548E2,5.6145557E2,8.14375E2,2.826907E4,2.8355781E3,6.57807E4,5.1795625E3,3.6007717E3,1.1872591E1,5.295934E1,2.4703616E2,9.751047E0,5.517045E2,5.6299053E1,7.580759E2,2.2010748E4,6.258322E3,2.4470625E3,3.885155E2,5.907349E4,6.707209E3,3.631654E3,1.5479086E3,3.485243E3,1.155289E2,4.021441E0,7.8511505E0,4.411559E1,8.84375E0,8.933008E1,1.5770609E2,3.7808013E0,5.479237E2,4.1301353E1,1.4997702E1,7.352398E2,2.2836115E1,2.1062385E4,9.4836285E2,3.8333494E3,